tree
version=v2
num_class=1
num_tree_per_iteration=1
label_index=0
max_feature_idx=18
objective=regression
feature_names=delivery_area_id date back_7d_z back_14d_z sred_za_7d sred_za_14d 50%_sz7d+50%_sz14d holiday days_until_holiday mean_by_area median_by_area mean_by_week std_by_week median_by_week target_sqrt target_log target_sqr weekend day_of_week
feature_infos=[0:592] [0:243] [1:105] [1:85] [1:41.142857142857146] [1:40.214285714285715] [1:40] [0:1] [-1:144] [1.3510011778563016:13.349351639969489] [1:11] [0:30.640449438202246] [0:16.391812476841352] [0:33] [0:10.246950765959598] [0:4.6539603501575231] [0:11025] [0:1] [0:6]
tree_sizes=2448 2478 2489 2487 2515 2509 2493 2514 2508 2490 2502 2518 2509 2523 2499 2518 2488 2515 2509 2528 2501 2509 2514 2531 2498 2528 2512 2529 2538 2509 2498 2525 2506 2525 2510 2508 2485 2513 2519 2533 2527 2509 2522 2523 2548 2507 2528 2548 2512 2509 2552 2505 2562 2507 2574 2511 2490 2487 2451 2469 2520 2475 2504 2520 2497 2505 2480 2551 2442 2509 2512 2492 2538 2466 2512 2544 2505 2478 2539 2504 2451 2524 2499 2435 2512 2520 2465 2435 2459 2520 2513 2473 2478 2450 2451 2426 2511 2537 2509 2460

Tree=0
num_leaves=31
num_cat=0
split_feature=4 4 4 4 4 4 4 4 6 4 4 4 4 4 4 14 4 14 6 14 3 12 4 4 14 6 4 4 4 3
split_gain=4.34314e+06 979972 805247 175764 158092 121213 108319 29927.5 25387.5 23817.2 21869.5 16744.5 15155.2 15086.2 14845.5 7278.35 5931.38 4685.1 4126.61 3590.15 4812.11 4738.1 3355.29 3126.44 3112.14 3046.14 2855.21 2561.34 2519.29 2457.67
threshold=6.5000000000000009 13.214285714285717 3.2142857142857149 9.2142857142857171 19.642857142857149 4.6428571428571432 2.0714285714285716 16.071428571428573 23.803571428571434 11.071428571428573 7.7857142857142865 5.5000000000000009 3.9285714285714293 2.6428571428571437 1.5000000000000002 2.3427788601414843 32.571428571428577 1.8660254037844388 18.053571428571434 1.8660254037844388 9.5000000000000018 8.1805580412885401 7.0714285714285721 14.500000000000002 2.3427788601414843 9.9107142857142865 12.071428571428573 1.7857142857142858 22.500000000000004 6.5000000000000009
decision_type=2 2 2 2 2 2 2 2 2 2 2 2 2 2 2 2 2 2 2 2 2 2 2 2 2 2 2 2 2 2
left_child=2 3 6 10 7 12 14 19 24 17 22 -7 -4 -8 -1 -9 -10 -5 29 20 21 -3 -2 -21 -6 -19 -11 -16 -26 -17
right_child=1 4 5 9 8 11 13 15 16 26 -12 -13 -14 -15 27 18 -18 25 -20 23 -22 -23 -24 -25 28 -27 -28 -29 -30 -31
leaf_value=3.5380188254951324 4.0852196412398749 5.1100994241017954 3.7667092993984546 4.6161428009985714 6.1341472275328925 3.9138544799230104 3.6463351799148231 5.6524036254439363 6.0678998060236218 4.564464739916156 4.2531468763973308 4.0067781571032191 3.8376291004194711 3.7037687402696893 3.5763060314462116 4.7347816689496804 6.9110703484717071 4.3600946752291989 5.2884398822966947 4.7724227281783742 5.6334583494777286 4.0418395671890099 4.1527926574931531 4.9071841604492823 5.4749319639266343 4.4508633304716989 4.6704921814912765 3.6042190377526575 5.7038522361990731 5.1024969041986221
leaf_count=95241 14870 206 72212 1104 91 43712 106860 300 1003 5568 20515 34854 51708 79955 67739 194 91 7892 1361 3638 134 52 14527 3268 1735 6956 4670 63871 665 2881
internal_value=0 6.41998 -0.955685 4.93917 13.6351 0.6783 -1.75551 11.8986 19.464 7.03715 3.83831 1.65 0.0622378 -1.19162 -2.21988 13.8562 23.4796 6.27317 13.5339 10.6283 13.5722 11.0471 3.28534 10.4612 17.7005 6.1254 8.2275 -2.00226 17.4828 12.8922
internal_count=707873 91721 616152 76102 15619 202486 413666 12034 3585 26190 49912 78566 123920 186815 226851 4736 1094 15952 4436 7298 392 258 29397 6906 2491 14848 10238 131610 2400 3075
shrinkage=1


Tree=1
num_leaves=31
num_cat=0
split_feature=4 6 4 6 4 4 4 6 4 4 4 4 4 4 4 14 4 4 14 1 4 4 4 13 3 14 12 14 3 14
split_gain=3.51979e+06 824205 620374 154635 129014 102835 73410.1 31171.4 20424.4 17115.2 16119.4 15414 11182.4 10632.8 8421.72 6663.57 5125.83 4890.7 3364.99 3251.29 3128.16 3097.44 3019.18 2964.85 2842.92 6676.14 4432.06 2703.42 2871.97 2563.31
threshold=6.3571428571428585 12.446428571428575 3.3571428571428572 18.053571428571434 8.9285714285714306 2.2142857142857149 4.6428571428571432 23.803571428571434 14.928571428571431 1.642857142857143 10.642857142857144 7.3571428571428585 2.785714285714286 5.3571428571428585 3.9285714285714293 2.3427788601414843 20.642857142857149 30.642857142857149 1.8660254037844388 3.5000000000000004 8.2142857142857171 17.785714285714288 1.3571428571428574 19.750000000000004 6.5000000000000009 1.8660254037844388 6.1233834131293339 2.1180339887498953 6.5000000000000009 2.3427788601414843
decision_type=2 2 2 2 2 2 2 2 2 2 2 2 2 2 2 2 2 2 2 2 2 2 2 2 2 2 2 2 2 2
left_child=2 4 5 8 11 9 14 16 19 22 18 -2 -7 -8 -4 23 -5 -9 -6 -3 -13 -17 -1 -10 26 -26 -21 28 -12 -18
right_child=1 3 6 7 10 12 13 17 15 -11 27 20 -14 -15 -16 21 29 -19 -20 24 -22 -23 -24 -25 25 -27 -28 -29 -30 -31
leaf_value=-0.23536805936094854 0.27266690829118773 -0.23733024986890647 -0.013223249676563274 1.4133762842992579 0.69796802898749766 -0.11624796525863307 0.10568757499970015 2.0199567415779986 1.6385764075170568 -0.16795397571803447 0.65477165420140537 0.35499282155130268 -0.064949314879927902 0.18134900309251079 0.042795842948477103 1.0696269424074649 2.3800635013891305 2.5928007275870679 0.52319961477436872 0.8709858869154643 0.42688478950600639 1.2768613008946874 -0.20480319959351118 0.65755282517741709 1.437275216592395 0.8883473414296662 0.43123869144113824 0.68051284694987046 1.0623723450348463 1.6230146881040586
leaf_count=62803 25326 26 55794 2298 1188 99764 37684 916 328 126915 308 15658 74023 36626 51708 4470 46 178 15163 721 9866 860 66579 34 230 6039 336 9978 394 1614
internal_value=0 5.63036 -0.883132 11.7097 4.21779 -1.5378 0.665519 16.4069 9.89049 -1.94046 5.98308 3.27939 -0.943978 1.4298 0.137217 11.3126 15.101 21.1316 5.35898 8.78946 3.82782 11.0306 -2.1964 15.4644 8.82907 9.08487 7.31199 6.93858 8.83539 16.4399
internal_count=707873 95977 611896 18096 77881 430084 181812 5052 13044 256297 27031 50850 173787 74310 107502 5692 3958 1094 16351 7352 25524 5330 129382 362 7326 6269 1057 10680 702 1660
shrinkage=0.1


Tree=2
num_leaves=31
num_cat=0
split_feature=4 4 4 4 4 4 4 4 6 4 4 4 4 4 4 4 3 14 14 12 4 14 14 4 14 12 3 12 14 4
split_gain=2.85248e+06 621254 555901 105800 104002 83296.7 75496.8 18457.9 17917.3 15551.9 13863.3 12039.2 11956.5 9057.75 8759.61 4394.27 2738.46 4298.49 2697.71 3068.24 2516.66 2460.07 2449.61 2446.71 2433.44 2597.02 5188.71 2383.21 2851.83 2371.94
threshold=6.6428571428571432 13.214285714285717 3.3571428571428572 9.5000000000000018 19.357142857142858 2.2142857142857149 4.9285714285714297 23.928571428571434 15.732142857142859 8.071428571428573 1.642857142857143 11.214285714285717 4.2142857142857153 2.785714285714286 5.7857142857142865 32.571428571428577 8.5000000000000018 2.3427788601414843 1.8660254037844388 8.1805580412885401 7.2142857142857153 1.8660254037844388 1.5731321849709865 1.2142857142857146 2.3427788601414843 6.1233834131293339 17.500000000000004 8.1805580412885401 1.5731321849709865 3.785714285714286
decision_type=2 2 2 2 2 2 2 2 2 2 2 2 2 2 2 2 2 2 2 2 2 2 2 2 2 2 2 2 2 2
left_child=2 3 5 9 8 10 12 -6 18 20 23 21 29 22 -8 -9 27 -18 19 -3 -2 -5 -7 -1 25 -13 -27 28 -10 -4
right_child=1 4 6 11 7 13 14 15 16 -11 -12 24 -14 -15 -16 -17 17 -19 -20 -21 -22 -23 -24 -25 -26 26 -28 -29 -30 -31
leaf_value=-0.22070345772819522 0.25144856814948707 1.2620896896361409 -0.018419431702026142 0.6848541349787407 1.4092213765476329 -0.090963984862306155 0.12241951103095124 1.8268625153645353 1.5372703851655474 0.39870045980080976 -0.151158578718112 0.92101343980283612 0.061640202852554719 -0.058454384484084368 0.19620657448620157 2.5496128187074767 1.6429120491010061 1.1159106037589022 0.84220720458814979 0.23978026166106714 0.30925410887313681 0.51567728740565177 -0.12259939315736952 -0.18946351523722893 0.65717638973966164 0.26865964079985311 1.4885381925004451 0.52942581769311803 0.90799790185037377 0.016559367031394764
leaf_count=34011 14020 266 43389 921 2647 56689 38658 1113 86 18584 126915 705 45515 74023 27558 91 161 4001 6650 33 16274 12880 43075 95371 8410 168 44 128 443 35044
internal_value=0 5.34075 -0.75451 4.10063 11.0579 -1.38402 0.669223 15.5687 9.58174 3.26682 -1.74641 5.8628 0.208689 -0.84958 1.53128 18.8149 11.0635 11.363 8.55419 11.4926 2.82502 5.26967 -1.04623 -1.97676 6.74043 8.2873 5.21842 9.16613 10.103 -0.0279084
internal_count=707873 87625 620248 72006 15619 430084 190164 3851 11768 48878 256297 23128 123948 173787 66216 1204 4819 4162 6949 299 30294 13801 99764 129382 9327 917 212 657 529 78433
shrinkage=0.1


Tree=3
num_leaves=31
num_cat=0
split_feature=4 4 4 4 4 4 4 4 4 4 4 4 4 4 4 4 14 14 6 14 5 14 1 3 14 12 3 14 6 14
split_gain=2.31247e+06 563599 388977 100554 94278.1 60683.1 49526.5 23353.6 12886.6 10073.1 10046.5 9417.18 8726.94 6227.72 5680.4 5075.25 3789.26 3632.89 2785.6 2592.95 2451.05 2415.86 2485.97 2409.97 4486.68 2676.56 2361.04 2984.13 2336.69 2327.18
threshold=6.2142857142857153 12.642857142857144 3.0714285714285716 17.785714285714288 8.7857142857142865 4.3571428571428585 1.9285714285714288 22.785714285714288 10.357142857142859 7.3571428571428585 15.357142857142859 5.2142857142857153 2.5000000000000004 3.6428571428571437 26.928571428571434 1.3571428571428574 2.3427788601414843 2.1180339887498953 20.375000000000004 1.8660254037844388 20.892857142857146 1.8660254037844388 11.500000000000002 12.500000000000002 2.1180339887498953 6.5832935846452889 12.500000000000002 4.0615528128088316 11.517857142857144 1.8660254037844388
decision_type=2 2 2 2 2 2 2 2 2 2 2 2 2 2 2 2 2 2 2 2 2 2 2 2 2 2 2 2 2 2
left_child=2 4 6 10 9 13 15 16 -6 -2 23 -7 -8 -4 -9 -1 20 -12 -18 -11 -5 22 -10 25 -25 -3 27 -20 -23 -14
right_child=1 3 5 7 8 11 12 14 21 19 17 -13 29 -15 -16 -17 18 -19 26 -21 -22 28 -24 24 -26 -27 -28 -29 -30 -31
leaf_value=-0.19119309394991255 0.21691388182986346 0.6988197718639807 -0.03102522271284848 1.8626291505933747 0.41926341511314064 0.070294881918406535 -0.1151838238970971 1.4973955502756264 -0.11201054488911349 0.40192972297711949 1.3030534207566173 0.13600933975526672 -0.062827672272745355 0.014019488074313888 1.900850482560144 -0.156688828600271 1.0987949557591743 0.89724831357656309 -0.057297541366683115 0.29311859296714043 1.1612703925952681 0.5093670342030141 0.76247068734816947 1.2685355697930192 0.75727856692434148 0.42950459164388194 1.3469086501426153 1.152977673835065 0.60008864158586195 -0.099430825459672134
leaf_count=62803 29731 3268 64093 127 16105 49740 114080 1150 34 2442 234 38832 62238 58899 501 132713 2795 3854 27 21224 82 7874 741 179 4181 416 893 83 4440 24094
internal_value=0 4.44636 -0.73471 9.55186 3.34665 0.359949 -1.31964 13.0332 4.79159 2.55665 7.92827 0.991056 -0.970307 -0.09454 16.1982 -1.67772 11.7291 9.20477 11.501 3.04346 15.8745 5.52856 7.24106 7.27955 7.78268 6.68409 12.9306 8.5591 5.42078 -0.730431
internal_count=707873 100381 607492 17790 82591 211564 395928 5658 29194 53397 12132 88572 200412 122992 1651 195516 4007 4088 3798 23666 209 13089 775 8044 4360 3684 1003 110 12314 86332
shrinkage=0.1


Tree=4
num_leaves=31
num_cat=0
split_feature=4 4 4 4 4 4 4 4 6 4 4 4 4 4 4 14 4 14 4 3 12 3 14 13 14 14 14 14 14 14
split_gain=1.87493e+06 399234 379701 66409.2 63702.5 61246 51196.2 12530.6 11349.1 10211.4 8867.25 8001.68 7237.3 6745.28 5622.36 3855.78 3048.36 2733.29 2697.36 2350.99 3298.8 2201.77 2731.87 2541.9 2174.61 2147.57 2067.57 2062.85 2053.43 2050.97
threshold=6.9285714285714297 3.5000000000000004 13.642857142857144 9.6428571428571441 2.3571428571428572 19.642857142857149 5.0714285714285721 1.7857142857142858 23.803571428571434 16.071428571428573 11.642857142857144 8.2142857142857171 4.2142857142857153 5.9285714285714297 2.9285714285714293 2.3427788601414843 32.571428571428577 1.8660254037844388 1.3571428571428574 8.5000000000000018 8.1805580412885401 4.5000000000000009 2.1180339887498953 12.750000000000002 2.1180339887498953 1.8660254037844388 1.5731321849709865 2.1180339887498953 2.3427788601414843 2.1180339887498953
decision_type=2 2 2 2 2 2 2 2 2 2 2 2 2 2 2 2 2 2 2 2 2 2 2 2 2 2 2 2 2 2
left_child=1 4 3 11 7 9 12 18 28 -4 21 -2 24 -8 26 -11 -10 -12 -1 20 -17 23 -23 -5 -3 -13 -6 -14 -7 -15
right_child=2 6 5 10 14 8 13 -9 16 15 17 25 27 29 -16 19 -18 -19 -20 -21 -22 22 -24 -25 -26 -27 -28 -29 -30 -31
leaf_value=-0.17207378422111802 0.24465997165614128 0.016948610923452342 0.7155364771226318 0.37590133446193724 -0.061021746852504971 1.6302600467598045 0.10789334298084619 -0.11332756608929602 1.5001019763120507 1.2599294317563376 0.81589452860847356 0.44746546995459185 0.072843417608629071 0.21487489960282014 -0.037408274699889159 0.77238875166794141 2.1045665738346813 0.56006283174807414 -0.14563982354096941 0.9135043246586364 -0.06275925272040897 0.62594762399974002 0.44637047038412042 -0.063472385589893043 -0.022279295197869468 0.32181889951611647 -0.090893772999677325 0.033384898728144971 1.1463098414664468 0.15599458489500476
leaf_count=62803 25250 41641 5863 1662 49067 91 36312 120804 1003 300 441 1485 27394 8147 68733 381 91 7876 100177 4001 54 911 12086 143 21391 16204 43901 25659 2400 21602
internal_value=0 -0.58192 4.55162 3.54363 -1.0919 9.24606 0.665372 -1.37735 12.819 8.03754 4.91008 2.80791 0.265433 1.36816 -0.590947 9.12965 15.5038 5.73628 -1.55826 8.895 6.68715 4.44585 4.58958 3.41092 0.0363594 3.32367 -0.751278 0.537594 11.6399 1.72119
internal_count=707873 627631 80242 66058 445485 14184 182146 283784 3585 10599 23119 42939 116085 66061 161701 4736 1094 8317 162980 4436 435 14802 12997 1805 63032 17689 92968 53053 2491 29749
shrinkage=0.1


Tree=5
num_leaves=31
num_cat=0
split_feature=4 6 4 4 6 4 4 4 6 4 4 4 4 6 4 14 5 1 3 14 14 5 14 3 12 14 14 5 14 14
split_gain=1.51931e+06 332442 295874 57009.7 55794.3 45685.1 40356.7 13792.4 8630.56 7329.66 6469.11 6162.45 5440.51 5209.62 4968.12 2956.91 2945.93 2836.62 2647.05 2349.5 2219.58 2627.59 2134.59 2088.76 2817.03 2678.55 2005.25 1906.44 2365.62 1892.06
threshold=6.6428571428571432 13.125000000000002 3.3571428571428572 9.2142857142857171 18.053571428571434 2.0714285714285716 4.7857142857142865 23.928571428571434 11.017857142857144 2.6428571428571437 7.9285714285714297 5.6428571428571432 1.5000000000000002 15.446428571428575 4.0714285714285721 2.1180339887498953 27.607142857142861 6.5000000000000009 1.5000000000000002 1.8660254037844388 2.1180339887498953 18.250000000000004 1.5731321849709865 4.5000000000000009 5.6715747661147633 2.1180339887498953 1.8660254037844388 23.392857142857146 2.3427788601414843 1.8660254037844388
decision_type=2 2 2 2 2 2 2 2 2 2 2 2 2 2 2 2 2 2 2 2 2 2 2 2 2 2 2 2 2 2
left_child=2 3 5 10 13 12 14 17 15 -7 22 -8 -1 -3 29 -5 -9 -6 -15 -11 21 -20 -2 24 -10 -25 -13 28 -19 -4
right_child=1 4 6 8 7 9 11 16 23 19 -12 26 -14 18 -16 -17 -18 27 20 -21 -22 -23 -24 25 -26 -27 -28 -29 -30 -31
leaf_value=-0.15004445679197212 0.30166892764224096 0.61967312005292052 0.011079677568320311 0.50773088775226238 0.038453514729776692 -0.084592344134602579 0.080595878934940052 1.2997158852275579 0.44860353855607671 -0.035577314385602486 0.27908272519931721 0.19016654910621314 -0.11866585203316314 0.25546973358094693 0.036413721496458044 0.35817651081498192 1.6876642712853789 1.3344911410467966 1.2430965765746864 -0.068757953045192485 0.75843225852203155 0.37528345307638483 0.19441295213296281 0.72865489409175288 0.060345327159965857 0.49105953245131223 0.12683704826231879 1.2192632196994311 0.95716164697807615 -0.022389704643148239
leaf_count=95241 1999 6153 34023 1452 31 106860 41075 958 749 64474 17958 6142 131610 100 48495 14769 246 175 185 31899 3901 43 25856 502 249 8657 26887 356 3286 33542
internal_value=0 3.89775 -0.550652 2.99713 8.11032 -1.00991 0.488031 10.8359 4.16827 -0.665574 2.32282 1.06455 -1.3184 6.784 0.119925 3.71564 13.7898 9.91169 7.63845 -0.465599 7.76157 10.7943 2.0211 4.89113 3.51734 5.04082 1.38614 9.98907 9.76241 -0.0553588
internal_count=707873 87625 620248 72191 15434 430084 190164 5052 26378 203233 45813 74104 226851 10382 116060 16221 1204 3848 4229 96373 4129 228 27855 10157 998 9159 33029 3817 3461 67565
shrinkage=0.1


Tree=6
num_leaves=31
num_cat=0
split_feature=4 6 4 4 4 4 4 4 6 6 4 4 4 4 4 14 4 1 14 14 3 0 14 5 3 14 12 3 12 14
split_gain=1.23227e+06 301798 207925 55797.9 48895.1 32269.3 26769.6 12760.2 6325.09 5892.67 5695.44 4604.55 4562.4 3663.09 3484.81 2837.57 2816.57 2568.77 2353.89 2169.86 2078.63 2410.92 2067.5 2053.91 2039.01 3661.43 3301.66 1992.74 3527.12 2142.97
threshold=6.2142857142857153 12.446428571428575 3.0714285714285716 17.785714285714288 8.9285714285714306 4.5000000000000009 1.9285714285714288 22.785714285714288 7.446428571428573 10.446428571428575 14.928571428571431 3.785714285714286 2.5000000000000004 5.3571428571428585 28.928571428571434 1.5731321849709865 1.5000000000000002 3.5000000000000004 1.8660254037844388 1.8660254037844388 2.5000000000000004 524.50000000000011 2.3427788601414843 20.892857142857146 6.5000000000000009 1.8660254037844388 6.1233834131293339 6.5000000000000009 5.4495187643881815 2.3427788601414843
decision_type=2 2 2 2 2 2 2 2 2 2 2 2 2 2 2 2 2 2 2 2 2 2 2 2 2 2 2 2 2 2
left_child=2 4 6 10 8 11 16 22 18 19 17 -4 -8 -7 -9 -12 -1 -3 -2 -6 -17 -22 23 -5 26 -26 -19 28 -11 -29
right_child=1 3 5 7 9 13 12 14 -10 27 15 -13 -14 -15 -16 20 -18 24 -20 -21 21 -23 -24 -25 25 -27 -28 29 -30 -31
leaf_value=-0.13504001002152197 0.22826729400473944 -0.47256486966059763 -0.01943020763687919 1.4163837801753068 0.45821224494856233 0.059135704546862428 -0.083841230446945622 1.122691173148032 0.23016388453683898 0.38509960324741854 1.0758274330455027 0.018378828526609089 -0.053371547048597583 0.10296721776667479 1.5087352495878301 0.25699382724585357 -0.11102717926584851 0.51572100809941934 0.15056880543730777 0.30457005138981208 0.65005960746777491 1.6993111594156787 0.8414278908400723 0.7743544120614122 0.9355674130511491 0.52990203914038303 0.13694010389053965 0.60227200667967518 0.058596277217046147 0.41546117352822548
leaf_count=95241 4524 26 77545 127 980 46701 114080 1369 22504 1680 157 55096 86332 32222 282 135 100275 721 28226 14817 4767 22 3798 82 231 6041 338 662 412 8480
internal_value=0 3.24578 -0.536328 6.94322 2.43265 0.264005 -0.963985 9.54675 1.89348 3.53475 5.75889 -0.0372521 -0.707157 0.770309 11.8863 6.57315 -1.22724 5.19653 1.61302 3.14102 6.43971 6.5488 8.58278 11.6449 5.23172 5.44843 3.94826 4.08841 3.20798 4.28989
internal_count=707873 100381 607492 18096 82285 211564 395928 5658 55254 27031 12438 132641 200412 78923 1651 5081 195516 7357 32750 15797 4924 4789 4007 209 7331 6272 1059 11234 2092 9142
shrinkage=0.1


Tree=7
num_leaves=31
num_cat=0
split_feature=4 4 4 6 4 4 4 4 6 4 6 4 4 4 4 1 14 3 12 14 14 3 13 14 1 14 14 3 3 14
split_gain=1.00051e+06 212601 203087 37552 34460.2 32521.7 27116.6 6117.86 5407.57 5157.97 4716.51 4522.91 4481.82 4379.64 2843.42 2690.3 2353.39 2431.81 2800.32 2053.24 2037.18 2000.12 2740.64 1939.16 1937.24 1915.18 1803.98 1741.34 1739.19 2056.26
threshold=6.9285714285714297 3.5000000000000004 13.785714285714286 9.6964285714285747 2.2142857142857149 19.785714285714288 4.9285714285714297 26.500000000000004 16.375000000000004 1.642857142857143 8.0892857142857171 11.928571428571431 2.9285714285714293 5.9285714285714297 4.2142857142857153 2.5000000000000004 1.8660254037844388 7.5000000000000009 8.1805580412885401 1.5731321849709865 2.1180339887498953 6.5000000000000009 12.750000000000002 2.5476205269238847 6.5000000000000009 2.1180339887498953 1.5731321849709865 2.5000000000000004 21.500000000000004 3.0811388300841904
decision_type=2 2 2 2 2 2 2 2 2 2 2 2 2 2 2 2 2 2 2 2 2 2 2 2 2 2 2 2 2 2
left_child=1 4 3 10 9 8 14 28 16 -1 20 15 19 23 -3 -5 17 18 -4 -6 -2 22 -17 -8 -10 -23 -11 -18 -7 -30
right_child=2 6 5 11 12 7 13 -9 24 26 -12 -13 -14 -15 -16 21 27 -19 -20 -21 -22 25 -24 -25 -26 -27 -28 -29 29 -31
leaf_value=-0.11767043718055148 0.23996004573260726 0.0029864733624763184 0.79569663604901686 -0.4641300201416016 -0.047173809590830881 0.81553519579415912 0.089451709300823287 1.2449324271903857 0.0077056944370269779 -0.082480940707782682 0.24289585693299287 0.4313675282883474 -0.026977062988903545 0.1249851023467889 0.0357863102954298 0.29537169627328785 0.20067757784457105 1.1977509009950567 -0.24084237687515492 -0.073418080921844639 0.16399723758481691 0.50966299151926064 -0.036679874445476074 0.044079785016983966 0.69039909765217089 0.34576058030405799 -0.11015158427611625 0.53111063611383913 1.6777728438377382 0.94987640577408428
leaf_count=129382 4291 63032 124 42 66271 1526 30150 579 42 95654 20213 7271 68733 29749 45515 2885 164 106 33 54184 19918 763 272 13700 4016 10861 31261 5792 40 1304
internal_value=0 -0.42509 3.32494 2.60225 -0.797245 6.82706 0.485111 9.48412 5.93534 -1.0362 2.07236 3.66766 -0.473527 0.953687 0.167398 3.35078 5.34939 8.27681 5.77825 -0.589792 1.77462 3.37349 2.66763 0.752762 6.83333 3.56519 -0.892966 5.22012 8.88591 9.7154
internal_count=707873 627631 80242 66516 445485 13726 182146 3449 10277 256297 44422 22094 189188 73599 108547 14823 6219 263 157 120455 24209 14781 3157 43850 4058 11624 126915 5956 2870 1344
shrinkage=0.1


Tree=8
num_leaves=31
num_cat=0
split_feature=6 4 4 4 6 4 4 6 4 6 4 4 4 4 4 14 4 14 14 14 2 3 14 12 3 14 12 9 5 14
split_gain=810636 186104 148666 33729.2 30908.8 21765.7 21155.8 7640.05 6098.81 3171.66 3034.85 3019.95 2933.31 2899.84 2890.43 2081.82 2036.55 1924.53 1830.67 1791.29 1778.43 2684.91 2443.09 1830.61 1727.02 3719.25 2163.75 1637.97 1533.64 1520.56
threshold=6.4107142857142874 13.214285714285717 3.2142857142857149 9.6428571428571441 18.053571428571434 4.6428571428571432 2.0714285714285716 23.803571428571434 7.9285714285714297 14.875000000000002 10.928571428571431 5.6428571428571432 1.5000000000000002 2.5000000000000004 3.785714285714286 1.8660254037844388 36.642857142857146 2.3427788601414843 1.8660254037844388 2.1180339887498953 28.500000000000004 15.500000000000002 3.534826445300872 1.0302874977113679 7.5000000000000009 2.3427788601414843 7.2835192039348815 6.9728267275955806 26.035714285714288 1.8660254037844388
decision_type=2 2 2 2 2 2 2 2 2 2 2 2 2 2 2 2 2 2 2 2 2 2 2 2 2 2 2 2 2 2
left_child=2 3 6 8 9 14 12 27 -2 -3 -5 19 -1 -8 -4 -16 20 -13 -15 -7 22 23 -9 -22 26 -26 -11 -6 -24 -10
right_child=1 4 5 10 7 11 13 16 29 24 -12 17 -14 18 15 -17 -18 -19 -20 -21 21 -23 28 -25 25 -27 -28 -29 -30 -31
leaf_value=-0.10976642318569936 0.14313500767221779 0.43646102444331247 -0.012942013368374354 0.27912546012808959 0.048045579450471061 0.077219314560745711 -0.064926970331764297 1.9224137469700406 0.29474983036886265 0.52727319747565182 0.35397437800347986 0.12618028614836371 -0.086725089737051647 -0.031262726399446508 0.039235245900745223 0.0025912214616870045 1.8136890672147274 0.073536242940629867 -0.060345631396340985 0.038780651866942906 -0.51615814208984379 0.96194740112121657 0.96173209944200289 0.60104546844959261 1.0003153794347064 0.54887088964781761 0.14391958794601689 0.73519126917610744 1.3160188407751552 0.20262080241200553
leaf_count=95233 33031 5113 59796 10551 35 21450 82737 35 1963 419 11133 12318 131604 73355 26292 37784 32 15918 30703 27883 20 353 428 55 190 4619 227 3922 171 20503
internal_value=0 2.75502 -0.415667 2.11797 5.90301 0.288825 -0.758759 7.93781 1.70474 4.93047 3.17554 0.704214 -0.963985 -0.509539 0.028707 0.176272 10.2768 0.965023 -0.398438 0.554938 10.04 8.46499 11.1032 3.03125 5.46085 5.66707 3.92565 7.29113 10.6287 2.10671
internal_count=707873 92800 615073 77181 15619 201441 413632 5051 55497 10568 21684 77569 226837 186795 123872 64076 1094 28236 104058 49333 1062 428 634 75 5455 4809 646 3957 599 22466
shrinkage=0.1


Tree=9
num_leaves=31
num_cat=0
split_feature=4 4 4 6 4 6 6 4 4 4 4 6 14 14 4 6 9 1 3 14 1 14 3 12 3 12 10 13 14 3
split_gain=658246 145257 128355 25163.6 22939.1 19676.4 19616 4747.29 3968.76 3908.21 2830.66 2761.82 2705.63 2613.08 2452.6 2437.26 2294.73 2183.68 2136.68 2079.36 2042.98 1839.8 2297.8 2896.84 1846.99 2223.56 1798.19 1861.2 1770.59 1758.82
threshold=7.0714285714285721 3.5000000000000004 14.214285714285717 9.6964285714285747 2.3571428571428572 19.660714285714292 5.0892857142857153 1.7857142857142858 26.928571428571434 12.071428571428573 17.785714285714288 4.1964285714285721 1.8660254037844388 2.3427788601414843 6.0714285714285721 8.8750000000000018 3.0459746854409313 2.5000000000000004 12.500000000000002 1.5731321849709865 102.50000000000001 1.5731321849709865 7.5000000000000009 6.5832935846452889 13.500000000000002 8.1805580412885401 10.500000000000002 5.7500000000000009 1.5731321849709865 5.5000000000000009
decision_type=2 2 2 2 2 2 2 2 2 2 2 2 2 2 2 2 2 2 2 2 2 2 2 2 2 2 2 2 2 2
left_child=1 4 3 12 7 10 11 -1 18 17 21 -3 16 20 -8 -14 -2 -5 -7 -6 -12 24 23 -23 25 -4 27 -25 -9 -19
right_child=2 6 5 9 19 8 14 28 -10 -11 13 -13 15 -15 -16 -17 -18 29 -20 -21 -22 22 -24 26 -26 -27 -28 -29 -30 -31
leaf_value=-0.092880220306711059 -0.39473833984014134 0.0019856834104482312 0.79581624904461212 -0.44676849274408248 -0.022437227501675368 0.52132699617473888 0.067650673629007202 -0.05887054096909327 1.0381309452037255 0.36008903568189093 1.7348282647855353 0.03263799705798108 0.15024983106953227 0.56665598060354427 0.10637108558282651 0.21157777861243071 0.26181348685337014 0.19840051211751655 0.76863851443306386 -0.045166856405427412 0.7687074394165897 0.4426053655807371 0.47360717064501223 0.83740739117969165 1.2819383916854861 -0.060790809318423268 0.76250430210944153 -0.12360766261738415 -0.085389618625485164 0.29003827944906885
leaf_count=162980 54 63556 125 42 75498 409 39238 85038 501 7795 33 54688 28866 2275 28055 8356 3755 2497 2395 86203 65 472 5836 22 50 40 31 240 35766 12992
internal_value=0 -0.336526 2.76321 2.19379 -0.646158 5.69633 0.406918 -0.817449 7.78885 3.02311 4.94371 0.161624 1.72232 5.88436 0.837935 1.64017 2.52506 2.73313 7.32565 -0.345544 10.9403 4.61622 4.52246 2.89287 7.49499 5.88154 0.423029 -0.429117 -0.667219 2.75265
internal_count=707873 631022 76851 64357 445485 12494 185537 283784 3305 23326 9189 118244 41031 2373 67293 37222 3809 15531 2804 161701 98 6816 6601 765 215 165 293 262 120804 15489
shrinkage=0.1


Tree=10
num_leaves=31
num_cat=0
split_feature=4 6 4 4 4 4 4 1 6 5 4 6 14 14 3 12 4 6 3 14 12 14 3 4 12 3 12 13 1 12
split_gain=533324 112905 109209 20410.3 20200 18468.5 11821.1 5551.96 4126.41 3920.11 3081.75 2991.38 2643.34 2609.12 2454.82 2436.73 2183.49 1994.5 1981.37 3633.75 3497.83 1945.19 1889.25 1868.38 1855.66 1820.98 2006.21 1800.23 2425.75 1792.08
threshold=6.7857142857142865 13.125000000000002 3.0714285714285716 19.785714285714288 4.6428571428571432 9.6428571428571441 1.9285714285714288 3.5000000000000004 16.732142857142861 24.535714285714288 5.6428571428571432 7.8035714285714297 1.8660254037844388 2.1180339887498953 4.5000000000000009 5.2054687095954382 3.785714285714286 11.410714285714286 8.5000000000000018 2.5476205269238847 6.5832935846452889 2.9142135623730954 16.500000000000004 2.5000000000000004 1.1230186596335126 3.5000000000000004 4.972363836281489 5.7500000000000009 198.50000000000003 8.1805580412885401
decision_type=2 2 2 2 2 2 2 2 2 2 2 2 2 2 2 2 2 2 2 2 2 2 2 2 2 2 2 2 2 2
left_child=2 5 6 7 13 11 -1 -3 18 21 -6 -2 27 16 15 -14 -4 -16 20 29 -9 -5 24 -8 -11 26 -13 28 -7 -20
right_child=1 3 4 9 10 12 23 8 -10 22 -12 25 14 -15 17 -17 -18 -19 19 -21 -22 -23 -24 -25 -26 -27 -28 -29 -30 -31
leaf_value=-0.081073456748875852 0.12046219411895923 -0.77184885893112576 -0.0027783061325812649 0.99368559622264407 0.045155832980286081 -0.41839673141638434 -0.054912119930313558 0.37834521401224724 0.51546545059503857 -0.24251157951354985 0.083358666951407021 0.12224018590067443 0.19417616944353944 -0.019644082014386832 0.23522692235059078 -0.097865935236258417 0.028062090402836005 0.30314337106219119 0.66308922797893033 0.391635129419793 0.041895014555225749 0.61434040354815522 0.94780389189241332 -0.035413527975630153 0.71791713032328974 0.18132001580153351 -0.17105271648108267 0.443302115056319 0.38895550402147427 1.5952293574810028
leaf_count=195516 23071 39 58114 143 49633 60 114080 1079 3450 25 36751 2521 1596 45597 11866 348 37947 6803 330 6632 433 2470 708 86332 103 20747 257 1102 98 22
internal_value=0 2.36707 -0.318291 4.81036 0.232959 1.81631 -0.635794 4.19346 4.23235 6.95403 0.614088 1.46048 2.57435 0.000543736 2.4884 1.41897 0.0940458 2.59976 3.85783 4.08253 2.81994 6.35101 8.83885 -0.465127 5.30333 1.71139 0.951069 3.98042 0.82366 7.21348
internal_count=707873 83903 623970 15434 228042 68469 395928 11985 11946 3449 86384 46596 21873 141658 20613 1944 96061 18669 8496 6984 1512 2613 836 200412 128 23525 2778 1260 158 352
shrinkage=0.1


Tree=11
num_leaves=31
num_cat=0
split_feature=6 6 4 6 4 6 4 1 4 4 14 5 14 14 6 14 1 14 3 14 13 4 8 12 3 4 4 4 14 3
split_gain=432622 94054.9 85684.4 17737.3 15429.1 15319.4 9575.12 3790.04 3104.68 2901.61 3279.61 2845.65 2688.51 2303.2 2299.11 1918.07 1914.4 1824.74 1809.96 3055.41 2741.69 1763.5 1709.3 1585.22 1552.79 1546.58 1536.88 1465.64 1404.82 1368.99
threshold=6.6250000000000009 13.446428571428575 3.0714285714285716 9.6964285714285747 4.5000000000000009 19.660714285714292 1.9285714285714288 4.5000000000000009 8.2142857142857171 16.071428571428573 2.1180339887498953 25.250000000000004 1.5731321849709865 1.8660254037844388 5.4821428571428585 1.8660254037844388 2.5000000000000004 1.2071067811865477 6.5000000000000009 2.3427788601414843 12.750000000000002 1.2142857142857146 6.5000000000000009 6.1233834131293339 12.500000000000002 5.6428571428571432 11.785714285714286 2.6428571428571437 2.9142135623730954 8.5000000000000018
decision_type=2 2 2 2 2 2 2 2 2 2 2 2 2 2 2 2 2 2 2 2 2 2 2 2 2 2 2 2 2 2
left_child=2 3 6 8 13 7 21 -3 -2 -9 -11 24 25 -4 -14 -10 -5 -8 20 26 -18 -1 -13 -22 -7 -6 -20 -19 -26 -12
right_child=1 5 4 16 12 11 17 9 15 10 29 22 14 -15 -16 -17 18 27 19 -21 23 -23 -24 -25 28 -27 -28 -29 -30 -31
leaf_value=-0.093658652328649228 0.1115051395344096 -0.66725516143967134 0.011188858752996474 -0.38528924754687721 0.074051730055626916 0.39057753101700327 -0.026763711874820229 0.34297972592590759 0.27548170637082625 0.82290384968346597 0.26623757220405836 0.84900846564380827 0.029746200358863759 -0.015170895156447459 0.06382958964542064 0.15363937919293569 0.21148023514539563 -0.055222026435717067 0.33670223868727883 0.24229014306541732 0.10453277152049745 -0.068604248988115471 -0.028516255772632101 -0.25846848780204196 1.0896195071642516 0.15527480555083303 0.58037098058978043 -0.033928059561354085 0.60321472172399737 0.44646932321574745
leaf_count=34010 31619 34 67018 49 9140 352 57227 5951 1393 221 467 636 45197 65587 35209 17822 3677 93872 1055 15906 309 161494 23 197 61 3153 343 49298 2233 4320
internal_value=0 2.09298 -0.292004 1.62994 0.20031 4.43668 -0.572176 3.86912 1.30771 3.90183 4.46274 6.32448 0.513299 -0.0184879 0.44671 1.62472 2.39054 -0.418569 2.40478 2.54748 1.81448 -0.729627 8.18382 -0.367938 5.86141 0.948844 3.96486 -0.478898 6.16149 4.28887
internal_count=707873 86668 621205 72370 225304 14298 395901 10993 50834 10959 5008 3305 92699 132605 80406 19215 21536 200397 21487 17304 4183 195504 659 506 2646 12293 1398 143170 2294 4787
shrinkage=0.1


Tree=12
num_leaves=31
num_cat=0
split_feature=4 4 6 4 4 4 4 1 0 3 14 12 5 4 4 14 12 3 14 14 14 4 6 5 14 1 1 18 14 4
split_gain=351196 78746.8 68986 15351 13954.9 9504.7 8832.18 5035.76 2855.78 2823.74 4074.45 2824 2805.56 2763.18 2522.14 2151.5 2321.37 3438.94 2021.97 1892.25 1876.48 1835.28 1752.85 1703.12 1538.96 1515.71 1435.51 1402.68 1511.89 1362.96
threshold=7.0714285714285721 3.6428571428571437 14.589285714285717 10.357142857142859 2.3571428571428572 22.500000000000004 5.2142857142857153 4.5000000000000009 524.50000000000011 12.500000000000002 2.7370892179053912 8.1805580412885401 19.535714285714288 1.642857142857143 8.6428571428571441 1.8660254037844388 6.5832935846452889 17.500000000000004 2.3427788601414843 2.5476205269238847 2.1180339887498953 2.9285714285714293 12.089285714285717 27.607142857142861 1.5731321849709865 220.50000000000003 11.500000000000002 1.0000000180025095e-35 1.8660254037844388 11.928571428571431
decision_type=2 2 2 2 2 2 2 2 2 2 2 2 2 2 2 2 2 2 2 2 2 2 2 2 2 2 2 2 2 2
left_child=1 4 3 14 13 7 18 -4 9 11 -11 27 -12 -1 -2 16 26 -18 -3 -8 21 -6 -17 -7 -15 -13 -5 -9 -29 -28
right_child=2 6 5 15 20 23 19 8 -10 10 12 25 -14 24 -16 22 17 -19 -20 -21 -22 -23 -24 -25 -26 -27 29 28 -30 -31
leaf_value=-0.07062403758559864 0.11235405546665798 0.024546836441323383 -0.80534366709845406 -0.21434660553932192 -0.029339475890910405 0.60463080598234864 0.077819041392861138 0.10229860927641124 1.5343813305551357 0.78501124890237461 0.37750572499052232 -0.074511512886965656 0.54044692563778329 -0.044754485880308954 0.16036896843315124 0.20214472483171583 -0.20555808925453356 0.77152247647849892 -0.0060004190952370829 0.04237633542953257 -0.047766963467032533 -0.0069087474159082972 0.26409531186171492 0.88126710962134469 -0.067266773096047769 0.66585839948346548 0.36744627089729542 0.66012657926774321 0.34048072104900862 0.62859469216603503
leaf_count=129382 28023 78744 35 32 83446 1478 36914 222 22 302 5380 256 1315 112858 17946 10651 136 49 29895 25448 27986 64805 7996 262 41544 31 519 162 1709 325
internal_value=0 -0.24581 2.01834 1.62754 -0.46119 4.31533 0.333597 3.91924 3.96382 3.93712 4.25717 2.99621 4.0951 -0.598445 1.31099 2.36591 3.75106 0.532362 0.161409 0.63356 -0.240176 -0.195343 2.2871 6.46285 -0.508117 0.0545876 4.43081 3.39958 3.68157 4.68007
internal_count=707873 631022 76851 65677 460021 11174 171001 9434 9399 9377 6997 2380 6695 283784 45969 19708 1061 185 108639 62362 176237 148251 18647 1740 154402 287 876 2093 1871 844
shrinkage=0.1


Tree=13
num_leaves=31
num_cat=0
split_feature=4 4 4 4 4 4 4 4 14 3 12 3 12 9 14 8 14 14 12 8 12 3 14 4 9 14 6 14 14 3
split_gain=285950 67789.3 50741.2 15482.4 8727.82 7636.55 7285.34 3565.79 2210.81 2151.4 2172.22 1999.82 2813.55 1903.19 2522.33 2318.26 1899.99 1671.22 1742.25 2535.77 1868.12 3208.61 1622.32 1584.06 1555.02 1585.34 1537.99 1530.99 1527.5 1440.45
threshold=6.3571428571428585 12.071428571428573 3.2142857142857149 17.785714285714288 8.7857142857142865 2.0714285714285716 4.3571428571428585 23.928571428571434 1.8660254037844388 8.5000000000000018 8.1805580412885401 17.500000000000004 7.2835192039348815 8.9611340514172078 3.534826445300872 48.500000000000007 2.3427788601414843 1.5731321849709865 1.6302616229887306 1.0000000180025095e-35 4.7545755947512252 11.500000000000002 1.8660254037844388 1.3571428571428574 2.4795058504153311 1.8660254037844388 15.732142857142859 1.5731321849709865 1.2071067811865477 4.5000000000000009
decision_type=2 2 2 2 2 2 2 2 2 2 2 2 2 2 2 2 2 2 2 2 2 2 2 2 2 2 2 2 2 2
left_child=2 4 5 8 17 23 27 -5 11 13 -11 12 -3 -10 15 -15 -8 18 19 -2 -20 -22 -7 -1 -6 -26 -14 -4 -25 -27
right_child=1 3 6 7 24 22 16 -9 9 10 -12 -13 26 14 -16 -17 -18 -19 20 -21 21 -23 -24 28 25 29 -28 -29 -30 -31
leaf_value=-0.070941360461938816 0.1512432207665618 0.49526408661531046 0.017154699609068277 0.42200213595169889 -0.64160460494458682 -0.024989097878879346 0.049042867117120054 0.61596595330327819 0.24311431671810305 0.26951915882565675 0.50563675037949429 0.80550147557600615 -0.27358141582587669 -0.31265122150460561 0.20334495822540186 0.18634764308210564 0.020099373922575738 0.086767239115825567 0.20047186914258572 -0.51006206318896308 -0.23423407044712741 0.65946753730579299 -0.047013705184801746 -0.042808927909587291 0.25442957950703188 0.091300392674243433 0.31136024309101928 -0.0093503064096973534 -0.062111851990041413 0.16593913152190709
leaf_count=62803 154 458 30814 4454 24 143178 53727 1204 1572 10951 404 122 87 251 545 148 39249 45478 2996 93 223 49 43637 83680 1796 2931 93 74440 80368 21944
internal_value=0 1.60481 -0.251717 3.22804 1.16968 -0.45106 0.164273 4.63277 2.68481 2.59382 2.7792 4.34549 3.63614 1.75716 0.63482 -1.27559 0.368246 0.919019 1.58335 -0.977503 1.77691 -0.732364 -0.301337 -0.574359 1.62972 1.63696 0.286384 -0.0159074 -0.522655 1.57145
internal_count=707873 95977 611896 20289 75688 413666 198230 5658 14631 13871 11355 760 638 2516 944 399 92976 48993 3515 247 3268 272 186815 226851 26695 26671 180 105254 164048 24875
shrinkage=0.1


Tree=14
num_leaves=31
num_cat=0
split_feature=4 6 4 4 6 6 4 9 14 5 14 1 3 14 3 12 14 3 14 12 14 6 14 18 3 14 2 4 14 14
split_gain=232263 59358.7 37657 12154.1 8747.82 6509.87 4390.07 2493.17 2983.25 2731.44 2371.24 2360.5 2334.62 2496.87 1864.28 2668.49 1851.85 1820.1 1740.36 1608.6 1545.64 1463.87 1460.61 1449.63 1448.61 2843.38 2892.84 1417.39 1392.57 1285.29
threshold=6.0714285714285721 12.089285714285717 2.9285714285714293 18.642857142857149 8.8750000000000018 4.1964285714285721 1.7857142857142858 6.2683692046684714 2.3427788601414843 24.535714285714288 1.5731321849709865 3.5000000000000004 19.500000000000004 2.1180339887498953 4.5000000000000009 5.2054687095954382 2.3427788601414843 16.500000000000004 1.5731321849709865 7.2835192039348815 4.7431236415680749 7.5892857142857153 2.7370892179053912 1.0000000180025095e-35 8.5000000000000018 4.4155174492701272 15.500000000000002 15.214285714285717 1.2071067811865477 2.1180339887498953
decision_type=2 2 2 2 2 2 2 2 2 2 2 2 2 2 2 2 2 2 2 2 2 2 2 2 2 2 2 2 2 2
left_child=2 4 6 11 10 18 -1 -5 23 24 -2 -3 27 -14 15 -6 -16 20 -4 -15 -11 -12 -7 -9 25 26 -10 -13 -8 -29
right_child=1 3 5 7 14 22 28 8 9 17 21 12 13 19 16 -17 -18 -19 -20 -21 -22 -23 -24 -25 -26 -27 -28 29 -30 -31
leaf_value=-0.055620856845101346 0.1522333217792729 -0.50749283878178131 0.010422849000593693 -0.6515249465193067 0.12107988295305239 0.033713672025886141 -0.022008035982456479 0.11757672894001009 0.69737260696433845 -0.56963675889101895 0.06331336002426613 0.20930343613266369 0.73481049852011959 0.26281239301795528 0.24333345330753386 -0.12024445423153683 0.15076793456298657 0.64386805025604521 -0.014018176187841512 0.42897021147412256 0.40808900096377387 0.097572851571863739 -0.00092032778246600884 0.93438744185694367 0.4029913591072467 0.42301510951860549 -0.6578842487600115 0.50448676059364661 -0.039341768086439896 0.26777408368204236
leaf_count=162980 4267 41 43419 21 2650 79869 67942 25 21 22 36919 8226 146 2019 2430 554 19543 709 88553 819 61 18835 14367 166 3399 134 63 245 145830 3598
internal_value=0 1.37322 -0.238936 2.93689 1.01139 0.0835803 -0.432581 4.35594 4.40557 4.23795 0.803857 2.50245 2.52309 3.3151 1.50614 0.793528 1.61005 5.92 -0.0597704 3.10763 1.48933 0.74887 0.284335 8.27475 3.86964 1.37074 -3.1907 2.32727 -0.338327 2.82865
internal_count=707873 104913 602960 19715 85198 226208 376752 4621 4600 4409 60021 15094 15053 2984 25177 3204 21973 792 131972 2838 83 55754 94236 191 3617 218 84 12069 213772 3843
shrinkage=0.1


Tree=15
num_leaves=31
num_cat=0
split_feature=6 4 4 4 4 4 4 9 1 14 3 12 14 12 8 3 14 5 6 6 14 4 14 14 14 14 14 1 12 3
split_gain=188693 43652.3 34763.2 8805.19 6881.77 6814.19 3897.01 3273.29 2983.05 2465.1 2155.82 2239.27 1849.52 2046.44 3330.01 1716.73 4194.33 1931.78 1703.22 1687.56 1656.59 1620.45 1601.3 1493.25 1451.7 1365.8 1330.88 1259.06 1248.14 2439.33
threshold=6.4107142857142874 13.642857142857144 3.5000000000000004 9.9285714285714306 2.3571428571428572 20.642857142857149 4.9285714285714297 8.0918526201971819 3.5000000000000004 2.9142135623730954 3.5000000000000004 4.2473439196159033 2.1180339887498953 2.2986950075400459 1.0000000180025095e-35 12.500000000000002 4.0615528128088316 27.607142857142861 7.8035714285714297 16.375000000000004 1.8660254037844388 1.3571428571428574 1.2071067811865477 2.3427788601414843 1.8660254037844388 1.2071067811865477 2.1180339887498953 181.50000000000003 6.1233834131293339 12.500000000000002
decision_type=2 2 2 2 2 2 2 2 2 2 2 2 2 2 2 2 2 2 2 2 2 2 2 2 2 2 2 2 2 2
left_child=2 3 4 10 21 8 23 -7 -3 27 11 -2 13 14 -12 16 -11 -17 -14 -10 -8 -1 -15 -4 28 -23 -6 -9 -5 -30
right_child=1 5 6 24 26 7 20 9 19 15 12 -13 18 22 -16 17 -18 -19 -20 -21 -22 25 -24 -25 -26 -27 -28 -29 29 -31
leaf_value=-0.058282095015618457 0.058135733231143676 -0.77054017782211304 0.013684392501425634 0.31913548147726695 -0.014479200499227249 -0.83906877100467681 0.069528568337849025 0.56175256133079532 0.23046904671300925 -1.0585114250183105 0.10654613741532533 -0.090258600916349505 0.063415300929631338 0.27032859563749745 -0.38498088644131234 0.41914222768560916 0.31100675386359111 0.7241992485393649 0.1038911604889191 0.30853856941704749 0.029883296053113469 -0.031625745026817718 0.13312123889085803 -0.01378743365492183 0.15369239141282742 -0.047390983230470127 -0.040039123755936656 1.1682055637018005 -0.11634944743932563 0.57518985735518591
leaf_count=62800 7475 28 82453 956 137775 20 13537 70 6666 25 502 1177 20890 982 190 2130 212 230 20696 4736 47604 102491 6356 26033 19134 118474 23906 67 188 70
internal_value=0 1.3292 -0.200545 1.03788 -0.34725 2.94387 0.184709 4.35592 2.60365 4.44917 0.840106 0.379485 0.920429 1.3598 -0.284107 4.23107 1.66543 4.48872 0.835588 2.62896 0.38661 -0.441072 1.51483 0.0709208 1.6042 -0.400785 -0.182585 8.58339 2.66461 0.712775
internal_count=707873 92800 615073 78616 445446 14184 169627 2754 11430 2734 58268 8652 49616 8030 692 2597 237 2360 41586 11402 61141 283765 7338 108486 20348 220965 161681 137 1214 258
shrinkage=0.1


Tree=16
num_leaves=31
num_cat=0
split_feature=4 4 4 4 4 5 6 14 4 14 8 9 14 3 14 3 13 4 14 3 14 6 3 12 8 3 5 5 14 14
split_gain=153293 35985.8 29257.1 7053.41 6730.1 4277.45 3806.53 2218.52 1641 1620.68 1760.83 1575.23 1686.51 1403.23 1333.53 2627.08 1689.35 1340.02 1324.7 1319.65 2491.31 1319.43 1306.67 2163.87 1298.7 1352.25 1411.38 1387.66 1269.05 1259.11
threshold=7.2142857142857153 3.785714285714286 14.928571428571431 2.5000000000000004 10.785714285714286 21.678571428571434 5.1964285714285721 2.3427788601414843 1.5000000000000002 4.7431236415680749 23.500000000000004 2.3996655966287856 1.8660254037844388 2.5000000000000004 2.3427788601414843 14.500000000000002 23.500000000000004 20.642857142857149 1.8660254037844388 2.5000000000000004 3.8073203664906798 8.9464285714285747 5.5000000000000009 5.2054687095954382 55.500000000000007 13.500000000000002 12.821428571428575 14.750000000000002 3.0811388300841904 1.5731321849709865
decision_type=2 2 2 2 2 2 2 2 2 2 2 2 2 2 2 2 2 2 2 2 2 2 2 2 2 2 2 2 2 2
left_child=1 3 4 8 11 7 18 24 -1 10 14 -2 22 -14 17 16 -16 -7 -3 20 -9 28 23 -13 25 26 -4 -28 -15 -5
right_child=2 6 5 29 -6 9 -8 19 -10 -11 -12 12 13 21 15 -17 -18 -19 -20 -21 -22 -23 -24 -25 -26 -27 27 -29 -30 -31
leaf_value=-0.049535724351294663 -0.43942139691538878 0.027714464649820122 -0.43482661247253418 -0.002671719599467326 0.16428772877979467 0.14116112033233924 0.04364566146381732 -0.61351254490368512 -0.033760609214192445 0.49384098345740379 -0.48014237114361358 0.13537445583536803 0.012690559030162227 0.092813850762296909 0.0071958448737859731 0.35670265589902195 -1.0867060798406603 0.90637536593845924 0.0033122511788081298 0.25358078699387004 0.24533730506617576 0.11409536722340685 0.20330616422306202 -0.16595063088195666 1.2159276573495432 0.68915080608616419 1.1425892084836959 0.31911049070211805 0.045697550688992776 -0.020427281574331008
leaf_count=95241 56 35241 23 68944 16999 34 65223 51 214355 1232 28 1601 2507 15979 48 409 20 70 60331 8248 100 14277 2263 280 22 142 22 293 8901 94933
internal_value=0 -0.158526 1.36605 -0.297335 1.10543 2.89121 0.250208 2.60423 -0.386135 4.27874 2.94424 0.906228 0.912708 0.852194 3.31753 2.61012 -3.1454 6.56209 0.123103 2.48218 -0.447378 0.89863 1.52112 0.905201 4.64632 4.30197 3.21406 3.76623 0.759577 -0.129574
internal_count=707873 634268 73605 473473 62863 10742 160795 8901 309596 1841 609 45864 45808 41664 581 477 68 104 95572 8399 151 39157 4144 1881 502 480 338 315 24880 163877
shrinkage=0.1


Tree=17
num_leaves=31
num_cat=0
split_feature=4 4 4 4 4 4 4 9 14 3 14 3 2 3 12 5 14 14 12 1 14 0 14 12 2 14 14 12 3 14
split_gain=124559 32186.6 20646.5 6475.48 4921.02 4237.82 2044.02 1625.86 1929.58 1863.93 1586.6 2120.35 1804.83 1519.09 1802.61 1448.58 1350.25 1346.25 1335.77 1310.24 1212.62 1225.57 1209.85 1198.53 2268.71 4031.97 1878.72 1192.07 1765.73 1154.58
threshold=6.0714285714285721 12.357142857142859 2.785714285714286 18.642857142857149 8.5000000000000018 4.0714285714285721 1.7857142857142858 6.2683692046684714 2.3427788601414843 22.500000000000004 2.1180339887498953 9.5000000000000018 16.500000000000004 12.500000000000002 7.2835192039348815 27.607142857142861 2.5476205269238847 2.7370892179053912 4.2473439196159033 1.5000000000000002 1.8660254037844388 5.5000000000000009 2.3427788601414843 6.5832935846452889 7.5000000000000009 3.6736043311189657 3.2394512252618903 6.5832935846452889 4.5000000000000009 1.8660254037844388
decision_type=2 2 2 2 2 2 2 2 2 2 2 2 2 2 2 2 2 2 2 2 2 2 2 2 2 2 2 2 2 2
left_child=2 4 6 10 17 22 -1 -5 -9 -10 11 12 -3 23 -15 -11 -7 -2 -19 -6 21 -21 -4 -12 26 -26 -25 -22 -29 -8
right_child=1 3 5 7 19 16 29 8 9 15 13 -13 -14 14 -16 -17 -18 18 -20 20 27 -23 -24 24 25 -27 -28 28 -30 -31
leaf_value=-0.041153484707075826 0.069939669829353679 0.34853688020259144 -0.0031533307596463295 -0.55644964916365491 -0.41095362962508686 0.026323985227084842 -0.022688653803674075 0.63662810005657189 0.25560004009280973 0.35621413802639573 0.15369794085490313 0.50208265559337928 -0.01087373109354127 0.18185278111926959 0.30548221024511824 0.63593771861722836 -9.1193393443553012e-05 0.031108008371356508 0.11994670897027176 0.50476851389495614 0.098842227652112535 0.16091571167942276 -0.03154998329571309 1.1601493193638615 -0.37611561852503461 0.14518151089394457 0.19841350032720806 -0.45193160763310813 0.33392574835248212 -0.044305618849329195
leaf_count=162980 30773 320 124529 21 49 79761 163990 191 2517 1684 4454 359 248 6797 1427 208 25550 21515 1837 109 29158 2114 17059 27 243 381 82 31 368 29091
internal_value=0 1.00563 -0.174977 2.185 0.745499 0.0472422 -0.329067 3.21445 3.25452 3.11972 1.85322 3.11848 1.91611 1.76576 2.03305 3.86966 0.199153 0.562011 0.380966 1.05752 1.06549 1.77776 -0.0657466 1.34198 0.157053 -0.578236 4.36642 1.01191 2.72869 -0.259456
internal_count=707873 104913 602960 18959 85954 246899 356061 4621 4600 4409 14338 927 568 13411 8224 1892 105311 54125 23352 31829 31780 2223 141588 5187 733 624 109 29557 399 193081
shrinkage=0.1


Tree=18
num_leaves=31
num_cat=0
split_feature=4 6 6 6 1 4 4 4 0 14 3 12 14 12 9 3 12 14 14 14 4 2 14 3 14 18 1 13 3 12
split_gain=101370 22903.3 20263.1 4604.45 3919.1 3799.85 3366.89 3212.41 2226.09 1440.51 1402.04 2336.69 2159.42 1487.29 1360.8 1286.44 2107.93 1697.97 1276.49 1229.35 1273.98 1293.59 1184.5 1081.89 2759.78 1065.13 1038.31 1238.15 996.748 2151.12
threshold=7.0714285714285721 3.4821428571428577 14.589285714285717 10.446428571428575 4.5000000000000009 2.0714285714285716 5.0714285714285721 22.500000000000004 524.50000000000011 3.2394512252618903 12.500000000000002 8.1805580412885401 2.9142135623730954 7.2835192039348815 2.3996655966287856 3.5000000000000004 4.7545755947512252 1.5731321849709865 1.2071067811865477 2.9142135623730954 36.857142857142868 17.500000000000004 2.7370892179053912 15.500000000000002 4.0615528128088316 1.0000000180025095e-35 220.50000000000003 23.500000000000004 8.5000000000000018 6.1233834131293339
decision_type=2 2 2 2 2 2 2 2 2 2 2 2 2 2 2 2 2 2 2 2 2 2 2 2 2 2 2 2 2 2
left_child=1 5 3 9 -4 -1 -3 8 10 14 11 25 -12 -14 -2 16 -16 -17 -7 -9 21 -21 -8 24 -23 -6 27 -13 29 -5
right_child=2 6 4 28 7 18 22 19 -10 -11 12 26 13 -15 15 17 -18 -19 -20 20 -22 23 -24 -25 -26 -27 -28 -29 -30 -31
leaf_value=-0.034638740647334805 -0.45032478167364998 0.0058245250765570772 -0.76776982003297567 0.11445568128724855 -0.025717574522436205 -0.002439378655734784 0.041568469655289715 0.76892122248528716 1.2180801868438722 0.042985375956003609 0.46898681408104798 -0.098685926205763538 0.18583154394046231 0.28528441950029204 0.054419047617513198 0.18811079630045943 -0.18349054419119049 0.084270588643866606 -0.02042353238172449 0.48365322038425368 1.0253474899464183 -1.0337309814634776 0.012227033301790837 0.31596654983862643 0.20177272383123634 0.2059533918734624 0.42369691412295069 -0.72412308164545014 0.14431804317259594 -0.099684491285255972
leaf_count=226686 48 117846 39 4406 222 51858 50548 71 22 13327 369 219 4322 2306 4164 1669 409 27872 165180 422 27 21 18904 1065 130 1871 31 37 13257 525
internal_value=0 -0.132063 1.08436 0.872563 2.32925 -0.255839 0.161173 2.3643 2.13346 0.708701 2.10989 1.44689 2.33541 2.20433 0.817483 0.824969 0.331409 0.901373 -0.161265 3.61409 3.44032 3.32801 0.335821 2.80449 0.299477 1.81381 -1.22893 -1.89081 1.30041 0.916563
internal_count=707873 631022 76851 65677 11174 443724 187298 11135 9399 47489 9377 2380 6997 6628 34162 34114 4573 29541 217038 1736 1665 1638 69452 1216 151 2093 287 256 18188 4931
shrinkage=0.1


Tree=19
num_leaves=31
num_cat=0
split_feature=6 4 4 4 6 4 14 3 9 8 4 14 14 17 1 2 3 12 14 12 3 12 14 12 14 0 17 14 14 13
split_gain=82488.1 21310.5 13945.7 5619.01 2764.52 2272.03 1578.83 1575.14 1642.39 1892.59 1409.38 1340.04 1279.3 1285.36 1205.75 1190.86 1168.15 2031.11 1685.31 1346.46 1127.96 1563.74 1504.31 1371.54 1291.11 1805.32 1186 1104.14 1086.14 1069.12
threshold=6.0535714285714297 11.357142857142859 2.785714285714286 17.785714285714288 4.5178571428571441 7.7857142857142865 2.5476205269238847 8.5000000000000018 9.039529846764184 59.500000000000007 1.2142857142857146 1.5731321849709865 5.8735158389724598 1.0000000180025095e-35 12.500000000000002 4.5000000000000009 5.5000000000000009 4.7545755947512252 2.3427788601414843 5.4495187643881815 4.5000000000000009 5.6715747661147633 3.8073203664906798 6.5832935846452889 3.534826445300872 69.500000000000014 1.0000000180025095e-35 1.2071067811865477 2.7370892179053912 6.7500000000000009
decision_type=2 2 2 2 2 2 2 2 2 2 2 2 2 2 2 2 2 2 2 2 2 2 2 2 2 2 2 2 2 2
left_child=2 5 10 6 11 -2 7 8 15 -10 -1 -4 -5 -14 -9 -3 17 -7 -18 -20 21 -8 -23 -22 25 26 -25 -12 -6 -17
right_child=1 3 4 12 28 16 20 14 9 -11 27 -13 13 -15 -16 29 18 -19 19 -21 23 22 -24 24 -26 -27 -28 -29 -30 -31
leaf_value=-0.046216992775718342 0.041271648430308561 0.86205753376407002 0.0097001887183685419 0.23997032458814671 0.026122221558798994 0.060891290905169149 0.10754560110041814 -0.24378499371326856 -0.083806141126324285 0.44014416239617105 -0.018225420142620154 -0.0089183434215582748 0.2519647545399068 0.64630288793705404 0.33860026866029702 -0.062883427131523215 0.14306486613444233 -0.086256856564958559 0.068952801088916757 0.16665526012617657 0.12094874148039975 -0.41265771428743997 0.033314088199336386 0.063043938821545506 0.23179097039830696 0.64330651923690152 -0.37124061123891311 -0.030017658548281551 -0.0057074855172274371 0.30085753309652213
leaf_count=34008 41836 31 57691 5327 59765 8037 706 37 407 83 142167 117167 171 160 907 103 4237 1062 23401 1501 12805 135 172 343 2201 46 77 179851 13064 375
internal_value=0 0.821831 -0.141792 1.64656 0.0404264 0.573757 1.37892 2.23151 1.35627 0.0494462 -0.268562 -0.0277552 2.51823 4.42581 3.15774 2.61431 0.74995 0.437167 0.84762 0.748419 1.27843 0.256154 -1.62797 1.34537 1.99776 0.485636 -0.165749 -0.248115 0.204126 2.22478
internal_count=707873 104160 603713 24086 247687 80074 18428 1943 999 490 356026 174858 5658 331 944 509 38238 9099 29139 24902 16485 1013 307 15472 2667 466 420 322018 72829 478
shrinkage=0.1


Tree=20
num_leaves=31
num_cat=0
split_feature=4 6 4 3 1 6 4 14 9 4 4 1 1 14 9 18 10 5 14 14 2 3 12 1 3 12 14 13 8 14
split_gain=67120.2 18129.2 10662.1 4387.41 2280.41 2258.3 1786.32 1936.84 1756.24 1735.2 1595.24 1528.78 1407.72 1244.15 1194.76 1128.1 1103.98 1087.08 1080.31 1012.79 1056.08 1040.33 1796.65 978.995 971.804 1334.81 969.882 969.127 2228.15 935.436
threshold=5.9285714285714297 11.517857142857144 2.9285714285714293 22.500000000000004 3.5000000000000004 8.0892857142857171 15.357142857142859 2.3427788601414843 11.581317077268816 4.0714285714285721 1.9285714285714288 1.5000000000000002 78.500000000000014 2.9142135623730954 2.4795058504153311 1.0000000180025095e-35 10.500000000000002 27.607142857142861 1.8660254037844388 1.5731321849709865 10.500000000000002 4.5000000000000009 4.7545755947512252 54.500000000000007 12.500000000000002 5.2054687095954382 1.8660254037844388 2.7500000000000004 117.50000000000001 2.5476205269238847
decision_type=2 2 2 2 2 2 2 2 2 2 2 2 2 2 2 2 2 2 2 2 2 2 2 2 2 2 2 2 2 2
left_child=2 5 10 4 -3 13 -6 12 -5 -4 -1 -7 15 -2 -13 -8 -14 26 27 20 -16 22 -21 -17 25 -22 -10 28 -11 -23
right_child=1 3 9 8 6 11 7 -9 17 18 -12 14 16 -15 19 23 -18 -19 -20 21 24 29 -24 -25 -26 -27 -28 -29 -30 -31
leaf_value=-0.029703232006415132 0.048213285384145536 -0.57840840922461623 -0.003842448306309686 0.1869377895679297 0.11105316585828524 -0.42063504921065437 -0.010496869683265686 0.16041593478983421 0.78246238922200551 -0.00038836763936550583 -0.016679741310044165 -0.5691444429857978 0.2085005575189956 0.014800747633320295 0.21885600844521991 0.61589412119908216 0.81661971084999319 0.58233055470426098 0.0069492308559067966 0.048188184362492552 0.1017465482666548 0.11569981933000138 -0.14528276866422934 1.3244482508072488 0.36484072454524846 -0.23166833743904577 0.28940070844036714 0.035073111362200482 -0.33025659909345451 0.067513423034034167
leaf_count=195516 38104 45 120897 1853 12094 63 21 6507 41 2788 181236 29 313 15751 940 78 33 153 68889 3593 441 4897 554 26 89 165 1480 28335 221 22721
internal_value=0 0.717924 -0.132075 1.51529 1.32622 0.511213 1.343 1.7459 2.54008 0.0422336 -0.234383 0.715109 3.70412 0.384411 0.724384 6.5804 2.665 3.2825 0.13952 0.729955 1.49749 0.690448 0.223423 7.93033 0.562817 0.109653 3.02692 0.29343 -0.24616 0.760574
internal_count=707873 109991 597882 22644 19117 87347 19072 6978 3527 221130 376752 33492 471 53855 33429 125 346 1674 100233 33400 1635 31765 4147 104 695 606 1521 31344 3009 27618
shrinkage=0.1


Tree=21
num_leaves=31
num_cat=0
split_feature=6 4 4 1 5 6 4 6 14 3 12 14 8 14 10 14 3 12 14 1 9 3 0 5 12 14 4 2 0 9
split_gain=54593.9 11718.4 11666.4 2829.3 2691.64 2456.5 1993.71 1856.89 1581.66 1472.31 1297.72 1267.29 1104.58 1087.74 1074.16 1045.33 1031.86 1553.26 1113.71 965.858 947.137 939.353 1434.36 2681.95 1211.44 934.11 860.186 854.335 790.05 778.164
threshold=6.8035714285714297 3.3571428571428572 13.928571428571431 3.5000000000000004 19.750000000000004 9.6964285714285747 2.2142857142857149 5.0892857142857153 1.5731321849709865 12.500000000000002 8.1805580412885401 2.9142135623730954 -1.0000000180025095e-35 2.5476205269238847 10.500000000000002 2.3427788601414843 2.5000000000000004 4.2473439196159033 3.3903632027465775 2.5000000000000004 2.3996655966287856 2.5000000000000004 524.50000000000011 11.964285714285717 7.2835192039348815 2.1180339887498953 35.285714285714299 8.5000000000000018 17.500000000000004 12.350263069256586
decision_type=2 2 2 2 2 2 2 2 2 2 2 2 2 2 2 2 2 2 2 2 2 2 2 2 2 2 2 2 2 2
left_child=1 6 5 -4 8 16 -1 13 10 12 -5 -11 14 -3 28 -9 17 -2 20 -7 -18 24 -23 -24 -10 -8 27 -13 -6 -12
right_child=2 7 3 4 9 19 25 15 21 11 29 26 -14 -15 -16 -17 18 -19 -20 -21 -22 22 23 -25 -26 -27 -28 -29 -30 -31
leaf_value=-0.024895092723225112 0.024816418465045467 0.0071534906735745878 -0.76227147145704788 0.50526810130010347 -0.48864867805333978 -0.30382238928051225 -0.0082704682501496315 0.038193901513805854 0.10767683628368081 0.67951422754923507 -0.36227053888142113 0.42480998010098009 0.27177029996700991 -0.019226862843528411 0.6250743047757582 0.012213617669977915 -0.41616970925104052 -0.15137082470646238 0.014645035235728035 0.088274653773205258 0.058987954372541729 0.13554626734793632 -0.12474126319090527 1.3043455230778662 -0.34879818470268464 -0.030571692724933604 0.71144052829726467 0.23546850402999586 -0.022816129165626534 0.42113904300190158
leaf_count=256284 3039 115556 33 198 44 63 152350 29404 161 75 32 266 182 18075 22 32721 42 599 6941 22495 35605 9556 24 29 91 21423 42 2289 211 21
internal_value=0 -0.100563 0.766922 1.62517 1.64822 0.601271 -0.192885 0.10226 1.39735 2.45842 3.87627 2.74263 0.803902 0.0358527 -0.453542 0.245102 0.469256 -0.0419297 0.512923 0.871796 0.584281 1.33425 1.38424 6.57212 -0.571614 -0.110198 2.6256 2.55181 -1.03195 -0.51863
internal_count=707873 625813 82060 13276 13243 68784 430057 195756 10112 3131 251 2672 459 133631 277 62125 46226 3638 42588 22558 35647 9861 9609 53 252 173773 2597 2555 255 53
shrinkage=0.1


Tree=22
num_leaves=31
num_cat=0
split_feature=6 4 4 6 6 1 3 14 12 8 3 12 9 6 9 14 12 1 3 3 12 13 14 9 11 3 14 9 4 14
split_gain=44411.8 12095.9 7121.9 3352.93 1615.27 1453.99 1398.69 1515.76 1674.57 1961.7 1348.95 1799.94 1488.82 1309.31 1224.29 1193.02 1789.74 1247.83 1218.25 1195.82 1517.89 1163.4 1028.92 1026.52 1245.25 998.632 1285.55 995.734 927.86 1060.11
threshold=5.8750000000000009 11.214285714285717 2.6428571428571437 18.053571428571434 3.9107142857142865 1.0000000180025095e-35 3.5000000000000004 1.5731321849709865 1.1525068711973179 1.0000000180025095e-35 11.500000000000002 4.7545755947512252 6.2951722495100517 8.6607142857142865 8.8916052440063336 1.5731321849709865 8.1805580412885401 12.500000000000002 17.500000000000004 2.5000000000000004 6.5832935846452889 8.7500000000000018 2.3427788601414843 6.9728267275955806 10.919871794871797 28.500000000000004 3.6736043311189657 11.581317077268816 1.2142857142857146 1.2071067811865477
decision_type=2 2 2 2 2 2 2 2 2 2 2 2 2 2 2 2 2 2 2 2 2 2 2 2 2 2 2 2 2 2
left_child=2 5 28 15 22 -2 14 8 9 -8 11 -10 -12 -9 -7 16 17 -3 -19 20 -17 -16 -4 24 -5 -25 -27 -28 -1 -30
right_child=1 3 4 23 -6 6 7 13 10 -11 12 -13 -14 -15 21 19 -18 18 -20 -21 -22 -23 -24 25 -26 26 27 -29 29 -31
leaf_value=-0.036135063111934561 -0.25619765913283282 -0.36167433889849498 -0.0023955016499619701 -0.84391187330087036 0.01062579883621928 0.024113356023279721 0.084148254756248653 0.034003147315402382 0.11870459528357175 -0.41622299047885464 0.057927836306168039 -0.20036919207084292 0.39404750470804356 0.064525220963252986 -0.010561269394897295 0.046576498042737419 -0.2520703947719406 0.26216988693699517 0.68366838770103644 0.10106410421301189 -0.3219160240194569 -0.17557840158796456 -0.029287199557839979 0.17582406652650748 0.25863182842731475 0.8022406291454397 0.10027678290710729 0.33794633172527483 -0.012224510336535137 -0.024163801071457658
leaf_count=34007 165 28 135889 21 111870 11527 202 47939 2967 128 211 188 351 19884 1426 477 68 480 80 18615 146 610 15892 4138 20 47 255 571 137013 162658
internal_value=0 0.582252 -0.107754 1.195 0.0150864 0.403677 0.409405 0.464989 1.05951 -1.09935 1.25117 0.996916 2.67853 0.429515 0.114865 1.01025 2.33639 2.8981 3.22384 0.96503 -0.397797 -0.600016 -0.0521116 1.92251 -3.06086 1.96329 2.9352 2.64574 -0.204814 -0.18705
internal_count=707873 110544 597329 24946 263651 85598 85433 71870 4047 330 3717 3155 562 67823 13563 19894 656 588 560 19238 623 2036 151781 5052 41 5011 873 826 333678 299671
shrinkage=0.1


Tree=23
num_leaves=31
num_cat=0
split_feature=6 4 4 1 4 3 12 14 14 5 13 14 13 8 14 3 9 6 13 14 14 14 12 8 4 1 18 4 14 18
split_gain=36373.3 8586.59 7383.98 2101.83 1808.52 1804.88 2255.82 1780.76 1547 1398 1392.75 1203.81 1404.9 2399.25 1184.57 1790.74 1156.04 1081.02 1066.44 1035.16 991.846 883.515 1381.73 1320.9 1100.16 861.839 862.892 894.035 1380.54 812.34
threshold=7.1607142857142874 3.6428571428571437 15.357142857142859 4.5000000000000009 1.9285714285714288 9.5000000000000018 5.2054687095954382 2.3427788601414843 1.8660254037844388 21.678571428571434 15.750000000000002 1.5731321849709865 2.2500000000000004 118.50000000000001 4.7431236415680749 14.500000000000002 8.8531804652733026 5.0892857142857153 23.500000000000004 3.3903632027465775 1.8660254037844388 2.3427788601414843 2.4498181028897883 1.0000000180025095e-35 11.785714285714286 1.0000000180025095e-35 1.0000000180025095e-35 10.214285714285717 1.8660254037844388 1.0000000180025095e-35
decision_type=2 2 2 2 2 2 2 2 2 2 2 2 2 2 2 2 2 2 2 2 2 2 2 2 2 2 2 2 2 2
left_child=1 4 5 -4 -1 10 21 29 16 -9 25 12 13 -3 15 18 -8 -13 -11 -12 -6 22 23 -7 -24 -2 -27 -28 -29 -5
right_child=2 11 3 7 20 6 8 9 -10 14 19 17 -14 -15 -16 -17 -18 -19 -20 -21 -22 -23 24 -25 -26 26 27 28 -30 -31
leaf_value=-0.022180966692472923 -0.36206402396256071 -0.003735755753764967 -0.73350095748901367 0.03979747982059674 -0.0059404079274478902 0.054361789921013107 0.037084044252211852 0.12105638739169505 0.11104119512493216 -0.13214351986260975 -0.25725128502493966 -0.00026574841868097645 0.037157931376383783 -0.28914876879353857 0.27332711246249403 0.16816102465991642 0.44743600823944035 0.017210748167105449 -0.99372603535652171 0.13347915672993924 -0.020040979614894251 0.048420100876794547 0.11540793099002639 -0.33899905334917774 0.38567823859164491 -0.0033170133595798834 0.037820184431668874 0.22909662310765788 0.065388765898878334 0.38237851216449398
leaf_count=195507 53 3238 27 82 197775 274 96 7470 6800 51 266 81039 26737 324 1232 420 241 62838 20 91 66712 18704 2567 124 160 3822 23771 560 6428 444
internal_value=0 -0.0772775 0.664927 1.47576 -0.14888 0.541368 0.726004 1.50024 1.21406 1.39785 0.388525 0.111822 0.292984 -0.29697 2.20982 0.896411 3.3054 0.0736708 -3.74843 -1.57653 -0.0949702 0.566434 1.05862 -0.681928 1.31265 0.40878 0.414956 0.470638 0.785079 3.28972
internal_count=707873 634170 73703 9746 459994 63957 28966 9719 7137 9193 34991 174176 30299 3562 1723 491 337 143877 71 357 264487 21829 3125 398 2727 34634 34581 30759 6988 526
shrinkage=0.1


Tree=24
num_leaves=31
num_cat=0
split_feature=4 6 5 4 1 14 13 3 12 8 3 12 13 4 14 17 2 1 4 3 18 14 9 5 0 12 14 14 4 8
split_gain=29543.5 8098.01 5269.7 1663.09 1504.98 1145.34 1436.74 1443.1 1646.6 1395.98 1272.64 1522.77 1990.21 1249.01 1096.95 1374.23 1159.95 1012.36 998.395 994.392 1267.95 958.236 1043.78 945.025 1274.82 1137.7 1124.76 940.19 911.291 905.782
threshold=7.7857142857142865 3.8035714285714293 15.678571428571429 2.3571428571428572 4.5000000000000009 1.5731321849709865 5.2500000000000009 11.500000000000002 5.4495187643881815 1.0000000180025095e-35 5.5000000000000009 6.5832935846452889 5.7500000000000009 12.357142857142859 5.4311951910930834 1.0000000180025095e-35 13.500000000000002 117.50000000000001 5.5000000000000009 10.500000000000002 1.0000000180025095e-35 2.7370892179053912 9.8017269986571396 11.821428571428575 524.50000000000011 8.1805580412885401 2.5476205269238847 3.0811388300841904 15.214285714285717 6.5000000000000009
decision_type=2 2 2 2 2 2 2 2 2 2 2 2 2 2 2 2 2 2 2 2 2 2 2 2 2 2 2 2 2 2
left_child=1 3 5 -1 -4 6 9 8 -8 -2 11 28 17 -10 16 -16 27 -13 -3 20 -18 22 -21 25 -25 26 -12 -6 -7 -9
right_child=2 18 4 -5 14 10 7 29 13 -11 23 12 -14 -15 15 -17 19 -19 -20 21 -22 -23 -24 24 -26 -27 -28 -29 -30 -31
leaf_value=-0.01790576751669674 0.080982120172871708 0.0064157371137768832 -0.47391160845756536 -0.005854783450173681 0.46837487548229195 0.021187341025014701 0.16894363092421089 0.077245681344841929 -0.18017403391732589 -0.37235923300836693 0.09103472145678855 -0.31285048978669305 -0.44056174225661143 0.20363070082957627 0.12966436297134168 0.37343966366448506 -0.21994027895601215 0.55230230830217664 0.022225092649108498 0.0048569256609136413 0.071217609751521208 0.11608906691730098 0.44406866094732023 0.082710250386757014 0.7707316638970817 -0.48999041976072849 0.041555435133821018 0.18181792529052998 0.35203702319413427 0.43860923931002616
leaf_count=283638 186 105599 40 192061 124 9351 1298 96 278 107 5602 21 151 122 495 434 185 38 64251 77 781 4863 182 10461 27 39 25538 1494 84 250
internal_value=0 -0.063477 0.657492 -0.130402 1.38061 0.540564 1.22521 1.52207 1.14278 -0.845726 0.509381 0.182049 -2.4813 -0.631136 1.40896 2.43549 1.28521 2.44367 0.123961 1.0852 0.154576 1.26071 3.13492 0.585152 0.844815 0.497806 0.504566 2.03779 0.241329 3.38347
internal_count=707873 645549 62324 475699 8675 53649 2337 2044 1698 293 51312 9645 210 400 8635 929 7706 59 169850 6088 966 5122 259 41667 10488 31179 31140 1618 9435 346
shrinkage=0.1


Tree=25
num_leaves=31
num_cat=0
split_feature=4 4 4 3 4 9 1 14 14 11 8 12 3 14 12 8 4 12 18 5 8 3 14 10 6 0 3 12 14 12
split_gain=23955.5 6854.06 3827.59 1616.18 1357.02 1130.65 969.252 971.082 904.402 1407.92 1276.25 967.52 1128.93 904.062 1396.32 2220.18 880.694 1405.68 976.467 858.244 851.925 777.525 1926.07 874.215 756.496 749.202 742.641 991.592 826.542 1034.32
threshold=5.7857142857142865 12.642857142857144 2.6428571428571437 22.500000000000004 8.9285714285714306 11.581317077268816 3.5000000000000004 2.1180339887498953 1.2071067811865477 2.5281746031746035 1.0000000180025095e-35 4.4789353530634584 12.500000000000002 1.2071067811865477 1.0481741914595617 -1.0000000180025095e-35 20.071428571428573 7.2835192039348815 1.5000000000000002 4.0357142857142865 -1.0000000180025095e-35 2.5000000000000004 3.6736043311189657 10.500000000000002 16.732142857142861 67.500000000000014 2.5000000000000004 3.9145568530354304 2.5476205269238847 4.2473439196159033
decision_type=2 2 2 2 2 2 2 2 2 2 2 2 2 2 2 2 2 2 2 2 2 2 2 2 2 2 2 2 2 2
left_child=2 4 -1 6 8 -5 -3 16 9 10 -2 25 -13 14 15 -4 17 -8 -18 -15 -20 22 24 -24 -9 -11 27 -10 -28 -30
right_child=1 3 13 5 -6 -7 7 21 26 11 -12 12 -14 19 -16 -17 18 -19 20 -21 -22 -23 23 -25 -26 -27 28 -29 29 -31
leaf_value=-0.015189097911207634 0.066686048189876598 -0.48336250901222233 0.025332817817834304 0.10435039171114242 0.050202176123151004 0.22164533160246652 0.2458546950715928 -0.20844222360159739 0.0049589780186911452 0.18790444362558939 -0.39892614943171861 -0.13831364125248016 0.42136313886869525 -0.0061647208610303792 0.021458152829946939 -0.19696476308953378 -0.041331037382284802 -0.033279716989386886 0.43273327099649528 0.006477551310615233 1.2263763132549468 0.083061162933811869 0.062121537311579149 0.7388210804689499 -0.72514203319678439 0.059624204322967014 0.038826807508597544 -0.11018858453719056 0.0099424411533199017 0.071866726518313981
leaf_count=333711 128 30 1069 1669 27333 1619 552 121 6224 1116 109 254 42 138049 31203 775 24 268 38 87883 21 13180 210 21 37 769 26015 850 31604 2949
internal_value=0 0.417296 -0.0810971 0.988059 0.31304 1.62106 0.844541 0.856311 0.239311 0.840243 -1.47456 1.09178 -0.589 0.0101253 0.164612 -0.680949 1.86045 1.54625 4.96456 -0.0124713 7.15216 0.789487 -0.603882 1.2364 -3.29442 1.35572 0.217829 -0.0887696 0.253638 0.152275
internal_count=707873 115183 592690 17790 97393 3288 14502 14472 70060 2418 237 2181 296 258979 33047 1844 903 820 83 225932 59 13569 389 231 158 1885 67642 7074 60568 34553
shrinkage=0.1


Tree=26
num_leaves=31
num_cat=0
split_feature=4 11 4 3 14 9 6 1 14 18 4 14 3 13 9 5 2 4 9 14 12 4 12 12 14 8 3 13 14 18
split_gain=19628.6 4823.98 4114.56 1151.42 1212.59 1186.1 1135.48 1119.16 1112.48 955.992 875.904 839.341 797.969 1907.81 1085.29 960.465 833.56 1016.04 786.874 733.31 1622.27 1037.41 1197.5 1012.45 902.25 857.713 801.385 773.737 1580.42 713.427
threshold=7.2142857142857153 3.0387112887112893 16.071428571428573 16.500000000000004 2.1180339887498953 6.3671485686870311 4.6607142857142874 4.5000000000000009 2.3427788601414843 5.5000000000000009 1.642857142857143 1.5731321849709865 12.500000000000002 26.500000000000004 12.93571655945753 19.750000000000004 21.500000000000004 27.642857142857149 2.3996655966287856 1.8660254037844388 6.5832935846452889 10.785714285714286 4.2473439196159033 2.3749810639177191 1.2071067811865477 3.5000000000000004 2.5000000000000004 8.7500000000000018 3.2394512252618903 1.0000000180025095e-35
decision_type=2 2 2 2 2 2 2 2 2 2 2 2 2 2 2 2 2 2 2 2 2 2 2 2 2 2 2 2 2 2
left_child=1 10 3 18 5 -5 -3 -4 -9 -6 -1 -8 13 14 -10 -14 17 -17 -2 20 21 22 23 25 -25 -20 27 -21 -29 -23
right_child=2 6 7 4 9 -7 11 8 12 -11 -12 -13 15 -15 -16 16 -18 -19 19 26 -22 29 -24 24 -26 -27 -28 28 -30 -31
leaf_value=-0.019088729424657877 -0.32878159282066055 0.00036153195181396229 -0.59718690026890153 -0.10386104058736984 0.052137405744703984 0.32899537033933618 0.040869466090653568 0.27381202592612147 0.078680123571850225 0.16646734419780448 -0.0090898537490454179 0.011120398373593252 0.09181101771471975 -0.74903788874546695 -0.31263949897885324 0.20515719197585738 0.12486011396426866 0.51964676708207824 0.0049137171187189476 0.019076287359669375 -0.16557317776188477 -0.033870858487577364 -0.018512659086036328 0.2322148434500475 0.090709703652101251 -0.44864368855953218 0.036239504950333949 -0.21979518547374172 0.02886940868584997 0.24789589985959407
leaf_count=128908 59 144263 22 78 4675 336 10820 429 1288 867 273468 76809 3890 30 75 898 1573 116 251 2068 268 107 1139 587 1939 50 51272 479 548 561
internal_value=0 -0.0567262 0.488821 0.404411 0.823557 2.47443 0.0581525 1.15107 1.16996 0.700234 -0.122932 0.147937 1.08447 0.397853 0.571475 1.23214 1.70435 2.41134 0.362332 0.365966 0.7364 0.874745 0.680563 1.02935 1.23593 -0.70428 0.332566 -0.161589 -0.871095 2.02763
internal_count=707873 634268 73605 65284 5956 414 231892 8321 8299 5542 402376 87629 7870 1393 1363 6477 2587 1014 59328 59269 4902 4634 3966 2827 2526 301 54367 3095 1027 668
shrinkage=0.1


Tree=27
num_leaves=31
num_cat=0
split_feature=4 4 5 11 2 14 3 18 14 14 0 2 3 12 6 14 5 1 12 4 18 14 14 9 4 18 9 13 3 12
split_gain=16077.5 4449.52 2961.4 1089.22 920.836 1182.76 958.642 1165.56 842.73 842.207 1560.53 1073.8 1294.62 1352.44 1222.06 787.201 771.846 768.849 764.222 837.137 742.2 865.205 718.209 889.666 736.626 711.092 822.518 760.299 708.709 1854.5
threshold=7.7857142857142865 3.9285714285714293 15.678571428571429 2.2538497986259185 13.500000000000002 4.9494897427831788 22.500000000000004 1.0000000180025095e-35 2.1180339887498953 2.3427788601414843 5.5000000000000009 11.500000000000002 19.500000000000004 6.1233834131293339 12.446428571428575 1.2071067811865477 10.392857142857144 1.0000000180025095e-35 5.2054687095954382 10.785714285714286 3.5000000000000004 6.5953440525064009 3.0811388300841904 8.8213902603585037 25.071428571428573 3.5000000000000004 6.9728267275955806 25.000000000000004 2.5000000000000004 3.7276293187214846
decision_type=2 2 2 2 2 2 2 2 2 2 2 2 2 2 2 2 2 2 2 2 2 2 2 2 2 2 2 2 2 2
left_child=1 3 9 -1 22 6 7 -6 17 10 -2 14 13 -13 18 -5 -11 -3 19 -12 -7 -22 23 -4 -24 26 -9 -27 29 -19
right_child=2 8 4 15 5 20 -8 25 -10 16 11 12 -14 -15 -16 -17 -18 28 -20 -21 21 -23 24 -25 -26 27 -28 -29 -30 -31
leaf_value=-0.013828822021537832 0.25968178139088582 -0.2705080610983398 0.96057580217071203 0.0063251825998041286 -0.10899740201818597 0.083291542412338382 0.13147800752317371 -0.49544621570543806 0.0036471785045305094 0.023885848477577677 0.075699779408180526 0.016884116010611495 0.33689339017326181 -0.21221755588533089 0.33429301499600506 -0.0076230343449371577 0.050355301856514635 0.0082338650115131931 -0.051393508588809568 0.24543043569279599 0.19591739022253812 0.78012936986409709 0.12769276222424908 0.27144823575964072 0.35420072417026799 0.022936873056840789 0.12101079470195052 -0.53240555393695832 0.024480357349841411 -0.14644813009635671
leaf_count=261441 411 92 23 52958 492 820 1401 22 92982 27347 4234 1864 110 299 189 171479 18448 14772 435 312 1014 26 1480 101 159 1774 1338 25 51007 818
internal_value=0 -0.0468268 0.48503 -0.0944196 1.02711 0.862571 0.611573 0.34173 0.0979978 0.397375 0.699922 0.595176 0.0223371 -0.147855 0.847026 -0.0433182 0.345488 0.183781 0.752321 0.873487 1.54432 2.10523 1.67222 3.9927 1.49666 0.564712 1.11039 0.152195 0.187772 0.00117773
internal_count=707873 645549 62324 485878 8675 6912 5052 3651 159671 53649 7854 7443 2273 2163 5170 224437 45795 66689 4981 4546 1860 1040 1763 124 1639 3159 1360 1799 66597 15590
shrinkage=0.1


Tree=28
num_leaves=31
num_cat=0
split_feature=6 4 6 3 14 9 12 3 9 9 14 12 14 4 2 14 18 14 4 18 4 1 5 12 12 1 14 12 3 8
split_gain=13350.5 3888.29 2090.99 1216.53 987.632 862.39 858.96 729.357 1028.17 942.966 902.951 1082.84 711.706 913.351 697.343 1559.81 1121.97 1115.38 1054.57 2338.26 1514.22 1094.37 799.306 724 692.186 671.996 663.505 1348.39 638.931 630.423
threshold=5.6964285714285721 10.928571428571431 2.7678571428571437 21.500000000000004 2.5476205269238847 2.3996655966287856 8.1805580412885401 3.5000000000000004 8.8916052440063336 9.0009293573722857 1.2071067811865477 1.5074537625254585 1.5731321849709865 1.5000000000000002 11.500000000000002 2.9142135623730954 1.0000000180025095e-35 4.8474055044395383 15.357142857142859 1.5000000000000002 15.928571428571431 102.50000000000001 14.464285714285717 8.1805580412885401 8.1805580412885401 3.5000000000000004 2.9142135623730954 4.7545755947512252 10.500000000000002 13.500000000000002
decision_type=2 2 2 2 2 2 2 2 2 2 2 2 2 2 2 2 2 2 2 2 2 2 2 2 2 2 2 2 2 2
left_child=2 5 12 14 -4 -2 -5 8 -7 -10 11 -9 13 -1 15 18 28 23 -3 -20 -21 -22 24 25 -17 -18 -12 -28 -16 -13
right_child=1 3 4 6 -6 7 -8 10 9 -11 26 29 -14 -15 16 22 17 -19 19 20 21 -23 -24 -25 -26 -27 27 -29 -30 -31
leaf_value=-0.016677995850522515 -0.23745701468961183 0.14712999784512173 0.0034763484330362811 0.087502354797044615 -0.016277140883708751 0.011841634383407429 0.19185665959384732 -0.11644680670169355 -0.19012168805281671 -0.028303832458421996 0.031245456232878277 0.045254316786018434 -0.01928791037768254 -0.0044193058890475449 -0.13320092462975616 0.045344863297406349 -0.35778911964195537 0.14023605841894241 1.4216305149453028 0.93236068165437747 0.42183273847286523 -0.47163092195987705 0.12766934710121813 -0.076880780070894189 -0.40709351401995209 0.047873233430314369 0.0045129778575442392 0.075900845991944521 0.0052022488141584234 0.17176505048754603
leaf_count=91967 129 1421 210142 3117 28777 13071 1056 216 458 1685 44463 652 80429 179220 499 6201 41 1252 21 22 26 29 1353 501 34 10173 25971 2946 1006 995
internal_value=0 0.308088 -0.0612164 0.643063 0.0109711 0.209162 1.1391 0.212847 0.0131552 -0.628874 0.253224 0.940738 -0.110267 -0.0857657 0.551387 0.765134 0.406895 0.509237 1.69011 4.86291 2.31199 -0.492663 0.579967 0.404879 0.428777 0.462449 0.23577 0.117858 -0.406869 1.21683
internal_count=707873 117338 590535 26752 238919 90586 4173 90457 15214 2143 75243 1863 351616 271187 22579 9107 13472 11967 1519 98 77 55 7588 10715 6235 10214 73380 28917 1505 1647
shrinkage=0.1


Tree=29
num_leaves=31
num_cat=0
split_feature=6 5 4 0 14 3 12 9 4 4 5 10 14 6 12 0 3 11 13 2 14 3 1 13 14 12 5 14 14 13
split_gain=10895.2 2522.71 2372.67 1034.38 924.417 858.164 1331.21 932.667 1129.1 1373.55 1289.6 1069.65 847.623 1115.6 901.011 865.018 833.339 1660.59 863.851 794.345 791.602 811.29 736.626 709.81 1152.36 699.065 1541.21 666.797 654.107 862.258
threshold=6.6250000000000009 15.035714285714286 3.0714285714285716 515.50000000000011 1.5731321849709865 5.5000000000000009 4.7545755947512252 8.9611340514172078 16.785714285714288 15.357142857142859 11.107142857142859 10.500000000000002 2.3427788601414843 14.875000000000002 4.7545755947512252 5.5000000000000009 17.500000000000004 15.669182621502211 8.2500000000000018 12.500000000000002 4.9494897427831788 11.500000000000002 236.50000000000003 23.500000000000004 2.1180339887498953 6.5832935846452889 13.250000000000002 3.8073203664906798 1.8660254037844388 8.7500000000000018
decision_type=2 2 2 2 2 2 2 2 2 2 2 2 2 2 2 2 2 2 2 2 2 2 2 2 2 2 2 2 2 2
left_child=2 5 -1 19 -4 6 -2 8 9 10 -8 25 13 15 27 -7 17 -17 -18 -3 21 22 23 -21 -25 26 -9 -14 -12 -30
right_child=1 3 4 -5 -6 12 7 11 -10 -11 28 -13 14 -15 -16 16 18 -19 -20 20 -22 -23 -24 24 -26 -27 -28 -29 29 -31
leaf_value=-0.0092961712932074763 0.018356094270538317 0.13774497082557444 0.015231858726687187 0.76532369337298656 4.3634370655019368e-05 0.18309343714442194 -0.10398294313219664 -0.19672726398731788 -0.74064321007047385 0.59922808404709849 0.25960691698204136 0.38083965746132109 0.024431523746899653 0.67943545066077138 0.051909777578946992 0.046877338850556005 -0.010712738252050586 -0.78608073145151147 0.29689599943620371 -0.021210531676654175 0.12026566790421407 0.066325976633792236 0.33168652827651907 0.029051444871085033 -0.81555847653498259 -0.34944768555900629 0.19244190317297738 -0.02081668591849932 0.66620491335168486 -0.0070249480754137035
leaf_count=395901 16914 1865 52139 22 173165 525 761 529 21 37 169 37 32541 29 11622 8703 139 24 266 1164 1987 4867 56 35 30 170 126 3619 20 390
internal_value=0 0.332145 -0.0463395 0.803853 0.0355844 0.270438 0.0872451 -0.63359 -0.12915 -0.0181673 -0.184127 -1.45169 0.33156 0.601301 0.27688 0.582704 0.510943 0.445866 1.91322 0.788791 0.653903 0.476664 -0.230074 -0.391693 -3.60769 -1.6876 -1.21864 0.199029 0.940552 0.258155
internal_count=707873 86668 621205 10026 225304 76642 19174 2260 1398 1377 1340 862 57468 9686 47782 9657 9132 8727 405 10004 8139 6152 1285 1229 65 825 655 36160 579 410
shrinkage=0.1


Tree=30
num_leaves=31
num_cat=0
split_feature=4 4 11 5 14 2 1 14 0 12 3 3 12 14 12 4 5 4 2 3 12 14 4 0 5 3 18 1 4 14
split_gain=9058.45 2785.58 1412.23 914.079 874.455 860.8 829.203 818.11 943.112 870.75 1129.53 790.497 1175.68 761.538 678.698 754.77 640.823 593.86 591.066 588.033 896.555 637.512 618.609 588.397 2882.27 701.07 569.01 567.816 565.951 556.426
threshold=5.5000000000000009 10.928571428571431 2.7642973856209152 19.392857142857146 1.5731321849709865 18.500000000000004 1.5000000000000002 1.5731321849709865 63.500000000000007 5.2054687095954382 12.500000000000002 12.500000000000002 1.2928879420015718 1.2071067811865477 8.1805580412885401 15.928571428571431 16.464285714285719 7.6428571428571432 10.500000000000002 2.5000000000000004 8.1805580412885401 3.8073203664906798 15.500000000000002 524.50000000000011 12.821428571428575 5.5000000000000009 3.5000000000000004 12.500000000000002 1.0714285714285716 1.2071067811865477
decision_type=2 2 2 2 2 2 2 2 2 2 2 2 2 2 2 2 2 2 2 2 2 2 2 2 2 2 2 2 2 2
left_child=2 6 28 4 14 -5 -2 8 9 17 -11 12 -7 -4 15 27 -16 -8 -10 20 21 -6 -22 -21 25 -25 -27 -3 -1 -30
right_child=1 3 13 5 19 11 7 -9 18 10 -12 -13 -14 -15 16 -17 -18 -19 -20 23 22 -23 -24 24 -26 26 -28 -29 29 -31
leaf_value=-0.030680710411757198 -0.2339075564265703 -0.29672619479673878 0.015113012312277928 0.1838372332060178 -0.10380251829720233 -0.49494892246318312 0.071876939373174298 0.014292212361418422 0.028536987466051489 -0.18729279050645276 0.31152080616407229 0.095572625468490532 0.0090711389818828401 -0.0014341876512895496 -0.47995494911747594 0.51541922785460004 0.11945666457925525 0.1638362699611747 -0.088978023922294688 0.043952441112765674 -0.0041904270648956297 0.094867909846897802 -0.70900388269713432 0.42716808546991913 1.3617586731910707 -0.39721991854744987 0.16523975746972219 0.17278599420495866 -0.0039787449258452548 -0.012020679424526688
leaf_count=11805 132 27 32612 918 363 53 2517 92093 3336 223 57 2130 365 188990 31 63 42 974 491 21730 20 291 33 34 20 37 35 560 155905 191986
internal_value=0 0.242424 -0.0527866 0.528987 0.457672 1.00811 0.165626 0.168943 0.484328 0.83925 -0.857486 0.708981 -0.548357 0.0100098 1.54023 1.86492 -1.35088 0.975339 0.134599 0.422983 -0.474607 -0.154033 -4.43037 0.452019 2.60676 0.529242 -1.23802 1.5119 -0.0914743 -0.0841674
internal_count=707873 126575 581298 26752 23286 3466 99823 99691 7598 3771 280 2548 418 221602 723 650 73 3491 3827 22563 707 654 53 21856 126 106 72 587 359696 347891
shrinkage=0.1


Tree=31
num_leaves=31
num_cat=0
split_feature=6 11 5 14 1 4 14 4 14 1 9 18 3 14 4 5 4 3 12 9 11 4 11 14 8 11 10 13 6 5
split_gain=7452.1 2180.28 1351.54 823.545 681.745 647.187 980.654 624.438 689.076 614.218 606.986 606.087 816.531 714.412 1002.17 690.352 638.507 589.404 1218.65 1211.6 861.631 799.509 1844.14 783.955 1544.47 909.128 722.253 597.464 874.169 583.199
threshold=7.6607142857142874 3.6471143936791486 15.678571428571429 2.9142135623730954 1.5000000000000002 4.9285714285714297 1.2071067811865477 1.642857142857143 1.5731321849709865 4.5000000000000009 2.4795058504153311 1.0000000180025095e-35 19.500000000000004 2.1180339887498953 21.642857142857149 22.750000000000004 14.642857142857144 7.5000000000000009 5.2054687095954382 8.9611340514172078 7.5141941391941396 16.785714285714288 10.919871794871797 2.1180339887498953 12.500000000000002 5.9587542087542094 10.500000000000002 5.7500000000000009 10.017857142857144 26.035714285714288
decision_type=2 2 2 2 2 2 2 2 2 2 2 2 2 2 2 2 2 2 2 2 2 2 2 2 2 2 2 2 2 2
left_child=1 7 4 5 -2 -3 -7 -1 -9 -4 -6 12 -11 14 15 16 -13 18 -12 20 -20 27 -23 24 -19 -26 -21 28 -22 -15
right_child=2 3 9 -5 10 6 -8 8 -10 11 17 13 -14 29 -16 -17 -18 23 19 26 21 22 -24 -25 25 -27 -28 -29 -30 -31
leaf_value=-0.012651299748080633 -0.22299446652925178 0.0031992777125610552 -0.29122525786663939 -0.013301746999908793 -0.37755000236872083 0.068733841107810015 0.013508108095057007 -0.0004804668367688463 -0.009488840044528709 -0.092600640886459487 0.022203981137767326 -0.11037460830191087 0.074422287754714489 0.067593685478942733 0.65113676708677548 -0.38754078312353657 0.25496897795152312 0.0061959604075384981 0.59680844235420227 -0.15322182245348931 -0.080823320963165982 -1.0845331631955648 0.25719390705227857 0.030842440071627397 -0.45321171383063003 0.16741218599459823 0.27511156290178984 -0.0013424844830296934 0.6184945719364362 0.19372388041799063
leaf_count=129263 109 86665 47 18808 37 3390 62423 190401 153264 498 16469 58 710 6643 46 22 273 1272 25 988 33 21 20 33565 24 1427 41 904 39 388
internal_value=0 -0.0322535 0.326397 0.0644133 0.268482 0.0887662 0.163528 -0.0672644 -0.0449792 0.692986 0.273446 0.712602 0.0556681 0.819409 2.12108 1.54898 1.90951 0.276178 0.131124 -0.59186 0.168228 0.0256558 -4.30032 0.350289 0.866329 1.57147 -1.36155 0.207382 2.97974 0.745541
internal_count=707873 644214 63659 171286 54974 152478 65813 472928 343665 8685 54865 8638 1208 7430 399 353 331 54828 18540 2071 1042 1017 41 36288 2723 1451 1029 976 72 7031
shrinkage=0.1


Tree=32
num_leaves=31
num_cat=0
split_feature=4 4 3 12 14 14 12 1 14 10 0 2 5 6 4 4 3 12 3 4 11 14 8 9 4 0 9 13 6 3
split_gain=6148.63 2067.51 1035.11 687.813 743.279 663.832 888.737 645.847 688.841 1489.85 1374.38 934.958 1592.98 1148.92 940.254 761.489 693.81 682.912 1096.81 699.476 682.625 678.702 650.072 631.864 601.23 590.299 556.38 702.667 553.129 503.564
threshold=8.5000000000000018 4.3571428571428585 21.500000000000004 0.94323350469845979 2.1180339887498953 2.7370892179053912 4.2473439196159033 1.5000000000000002 2.3427788601414843 10.500000000000002 5.5000000000000009 9.5000000000000018 12.821428571428575 13.446428571428575 20.642857142857149 15.500000000000002 4.5000000000000009 7.2835192039348815 6.5000000000000009 11.642857142857144 11.96858552631579 1.5731321849709865 17.500000000000004 12.93571655945753 15.500000000000002 23.500000000000004 9.0009293573722857 17.250000000000004 12.446428571428575 2.5000000000000004
decision_type=2 2 2 2 2 2 2 2 2 2 2 2 2 2 2 2 2 2 2 2 2 2 2 2 2 2 2 2 2 2
left_child=1 3 7 -1 -5 29 -7 -2 9 10 -9 12 15 -14 17 28 -16 19 24 20 -13 -20 26 25 -19 -4 -21 -28 -12 -3
right_child=2 5 23 4 -6 6 -8 8 -10 -11 11 14 13 -15 16 -17 -18 18 21 22 -22 -23 -24 -25 -26 -27 27 -29 -30 -31
leaf_value=-0.011367470448156426 -0.266087002176288 -0.0026560194425908784 0.125975350356268 -0.0014583476674933501 -0.014401369167716383 -0.0068312497988039364 0.061649665729567239 0.26034290229891055 0.025036839941103464 0.40947844498783104 0.078196543585657918 0.0066467987264605573 0.18899183923547919 1.2230807857854027 0.6099640179086816 -0.53479158878326416 -0.033969615344648006 -0.20588648263798204 -0.15986687860318594 0.080655379943263134 -0.16437831127711319 -0.82924020398746845 0.20929687812280814 0.18837547823942935 0.096011821539313702 0.04150002837547076 -0.31982908556122841 0.32928756220000133 0.45351421348750592 0.015779469991611728
leaf_count=143737 74 18039 1176 323768 51415 35183 2003 307 40648 121 2143 1542 22 21 44 20 27 129 28 334 275 33 301 477 135 2789 81 21 40 82940
internal_value=0 -0.0259108 0.335229 -0.0548551 -0.0323206 0.0827979 -0.0314257 0.291032 0.295752 0.62377 0.54745 0.425974 0.912121 6.94012 0.0558432 0.794462 3.65088 -0.0328152 -1.39812 0.140922 -0.192376 -5.21987 0.962634 0.796366 -0.515067 0.66555 0.182289 -1.86187 0.850736 0.124861
internal_count=707873 657085 50788 518920 375183 138165 37186 46346 46272 5624 5503 5196 2246 43 2950 2203 71 2879 325 2554 1817 61 737 4442 264 3965 436 102 2183 100979
shrinkage=0.1


Tree=33
num_leaves=31
num_cat=0
split_feature=6 12 3 9 14 10 18 14 4 5 8 8 3 13 4 12 13 5 14 14 6 14 2 9 2 14 10 14 3 12
split_gain=5032.31 1899.74 744.786 917.831 1344.47 861.886 824.417 579.716 784.575 568.952 632.078 529.482 602.376 841.574 622.369 776.415 525.415 1326.51 704.843 520.104 493.157 547.093 486.356 478.918 467.934 561.744 529.562 1010.91 776.997 563.139
threshold=8.8750000000000018 1.8030301512006688 12.500000000000002 8.9611340514172078 1.8660254037844388 10.500000000000002 1.0000000180025095e-35 1.2071067811865477 4.5000000000000009 17.821428571428573 6.5000000000000009 13.500000000000002 8.5000000000000018 8.7500000000000018 7.2142857142857153 3.5052147942928626 23.500000000000004 22.178571428571434 2.3427788601414843 6.4419324679203553 4.6607142857142874 2.9142135623730954 18.500000000000004 6.2951722495100517 9.5000000000000018 5.700708448015205 10.500000000000002 2.5476205269238847 4.5000000000000009 6.5832935846452889
decision_type=2 2 2 2 2 2 2 2 2 2 2 2 2 2 2 2 2 2 2 2 2 2 2 2 2 2 2 2 2 2
left_child=1 -1 6 -4 -5 19 22 8 -3 10 -7 -10 13 14 15 -13 24 -18 -19 -6 -9 -22 -2 -14 25 -8 29 -28 -29 -26
right_child=2 7 3 4 5 9 16 20 11 -11 -12 12 23 -15 -16 -17 17 18 -20 -21 21 -23 -24 -25 26 -27 27 28 -30 -31
leaf_value=-0.0061692138833088078 -0.016206990652715695 0.0097594202084201592 0.02417851254424179 0.2821847273872724 0.068951840957695562 -0.57249474503375875 0.046666644437134204 -0.001694114286041673 0.014065324109407779 0.051151017080754174 -0.075203473175368379 0.081365180539245574 0.085370796087785195 -0.16745372216229315 0.22733987256641963 -0.07321396784866667 -0.75650607665379843 0.43610186256744249 -0.2627700216827854 0.39898474430665376 0.011839932430577717 -0.0048631981803314763 -0.15032918648641619 0.28596690388829366 0.019094218500067792 -0.48388661950826645 0.500308001325244 0.32397247856789374 -0.045156708335185924 -0.056548384370390586
leaf_count=427352 2381 18470 9423 283 9178 27 9135 101334 2193 469 479 2175 249 154 238 382 30 27 31 48 84668 25520 305 228 11652 20 63 79 205 1075
internal_value=0 -0.0219449 0.323951 0.468274 0.671842 0.612196 0.209042 0.0501489 0.197136 -0.281949 -1.01739 0.524335 0.769931 0.60129 0.726685 0.58272 0.272038 -2.16663 0.625669 0.706689 0.0334094 0.0797142 -0.314368 1.81253 0.281693 0.455076 0.160282 1.37914 0.575236 0.12705
internal_count=707873 662963 44910 19907 10484 10201 25003 235611 24089 975 506 5619 3426 2949 2795 2557 22317 88 58 9226 211522 110188 2686 477 22229 9155 13074 347 284 12727
shrinkage=0.1


Tree=34
num_leaves=31
num_cat=0
split_feature=4 5 4 2 3 10 12 1 1 0 14 13 1 14 0 14 14 12 10 4 18 14 4 4 9 12 4 4 8 4
split_gain=4144.23 1358.38 863.968 751.021 740.021 888.857 850.644 1019.61 785.159 745.943 974.281 1088.89 871.547 735.516 2680.51 690.369 657.159 623.599 771.448 611.157 632.599 604.129 597.742 597.599 590.071 586.89 534.046 463.082 451.73 470.932
threshold=5.7857142857142865 12.035714285714286 2.5000000000000004 12.500000000000002 11.500000000000002 10.500000000000002 6.5832935846452889 219.50000000000003 229.50000000000003 23.500000000000004 2.1180339887498953 22.750000000000004 85.500000000000014 2.9142135623730954 524.50000000000011 2.3427788601414843 3.3903632027465775 3.1959721234416967 2.5000000000000004 21.928571428571434 5.5000000000000009 1.8660254037844388 18.214285714285719 9.071428571428573 12.93571655945753 7.2835192039348815 13.071428571428573 1.2142857142857146 30.500000000000004 16.500000000000004
decision_type=2 2 2 2 2 2 2 2 2 2 2 2 2 2 2 2 2 2 2 2 2 2 2 2 2 2 2 2 2 2
left_child=2 16 21 13 5 6 -5 9 -9 10 22 -12 28 14 25 -4 23 -17 -19 20 -15 27 -8 -2 -6 26 -3 -1 -11 -30
right_child=1 3 15 4 24 -7 7 8 -10 12 11 -13 -14 19 -16 17 -18 18 -20 -21 -22 -23 -24 -25 -26 -27 -28 -29 29 -31
leaf_value=-0.016827181914015606 0.012120004496757195 0.068501690976670263 0.0029810680271879961 0.010688466591148407 0.036401880579187439 0.2069374809957506 -0.14312856398130719 0.46350952932294814 -0.045144608060658821 0.21562295127806702 -0.31429753581802533 -1.0629921523007482 -0.15346034084113291 0.032118977340026056 1.2039118587970734 -0.012476721335163671 -0.0058407631564129578 0.18137934574432957 0.01681236912825896 0.18672165283553152 0.12703856006401645 -0.023860704581524096 0.43533591744913303 0.034773197950974735 0.1372747818383307 -0.19071905282589627 0.24867459730912081 -0.0044066016503464724 0.059478131808199976 -0.51001364439725883
leaf_count=34011 64875 342 230408 2566 9407 181 95 53 71 127 166 22 405 4036 24 49480 16344 316 2890 343 850 19939 22 14193 618 53 317 255646 53 20
internal_value=0 0.173566 -0.0337306 0.412129 0.284019 -0.0929682 -0.201686 -0.967443 1.72264 -1.334 -2.60915 -4.01911 -0.691161 0.70864 1.64461 0.00619644 0.124131 -0.0970741 0.330329 0.576899 0.486318 -0.0702399 -0.343575 0.161863 0.426203 1.29423 1.55171 -0.05865 1.01681 -0.96547
internal_count=707873 115183 592690 19771 13806 3781 3600 1034 124 910 305 188 605 5965 736 283094 95412 52686 3206 5229 4886 309596 117 79068 10025 712 659 289657 200 73
shrinkage=0.1


Tree=35
num_leaves=31
num_cat=0
split_feature=4 5 9 4 14 0 4 1 12 14 3 0 2 1 14 18 3 14 4 2 12 4 12 9 14 13 14 13 3 3
split_gain=3400.34 1286.9 737.168 679.773 645.129 717.27 716.514 589.916 586.556 581.732 551.461 717.906 2830 1509.04 668.812 559.835 748.612 613.656 901.065 860.106 941.251 560.971 664.285 567.49 538.799 531.902 529.55 667.66 992.499 521.342
threshold=5.0714285714285721 11.178571428571429 2.0477926036254419 15.500000000000002 1.2071067811865477 67.500000000000014 14.642857142857144 2.5000000000000004 1.1368100947357811 2.1180339887498953 28.500000000000004 524.50000000000011 6.5000000000000009 102.50000000000001 3.0811388300841904 1.0000000180025095e-35 10.500000000000002 1.8660254037844388 15.071428571428573 15.500000000000002 4.4789353530634584 11.928571428571431 5.4495187643881815 6.2501603295439603 3.3903632027465775 14.750000000000002 4.9494897427831788 26.500000000000004 16.500000000000004 19.500000000000004
decision_type=2 2 2 2 2 2 2 2 2 2 2 2 2 2 2 2 2 2 2 2 2 2 2 2 2 2 2 2 2 2
left_child=8 2 -2 4 5 -4 24 -3 -1 -10 11 15 13 -13 -12 16 -9 18 19 21 -21 22 23 -17 -6 -22 27 -19 -29 -27
right_child=1 7 3 -5 6 -7 -8 10 9 -11 14 12 -14 -15 -16 17 -18 26 -20 20 25 -23 -24 -25 -26 29 -28 28 -30 -31
leaf_value=-0.0076800455652071197 -0.26338175911493977 -0.23827396114887317 0.088223720918292101 -0.5225440935542186 0.01075859568907051 0.0060026245609376017 0.59239576998211096 -0.092339401213473518 0.0010272924751324618 -0.0091711739099390507 0.4029331008531154 1.5061802046000958 -0.37107993564568464 0.31848232124162762 0.083824263774563174 -0.22615079029842661 0.019816931602946647 0.028524700064819095 0.26788834649657084 -0.55109062033730583 0.14846772720308407 0.23869284348619454 -0.10620106434629811 0.28012869442260363 -0.0098555473321652945 -0.22927430658522302 0.082620068475710295 -0.84051107818430126 0.012032084953453807 0.26539480021366707
leaf_count=212483 99 79 2169 24 103064 2077 21 787 279141 69946 70 20 32 23 1064 27 2441 16751 271 37 115 261 155 123 14458 118 1933 22 36 26
internal_value=0 0.135787 0.0938367 0.0960535 0.0971022 0.480039 0.0832693 0.345466 -0.0353759 -0.0101616 0.354331 0.321018 3.40989 8.709 1.03522 0.31099 -0.0752725 0.373725 1.08839 0.588361 -0.792928 1.31073 0.38979 1.88998 0.0822257 -0.118931 0.330522 0.27352 -3.11346 -1.39959
internal_count=707873 146303 121912 121813 121789 4246 117543 24391 561570 349087 24312 23178 75 43 1134 23103 3228 19875 1133 862 296 566 305 150 117522 259 18742 16809 58 144
shrinkage=0.1


Tree=36
num_leaves=31
num_cat=0
split_feature=4 11 1 14 13 8 6 4 13 5 2 14 14 4 3 12 4 8 3 9 4 8 4 14 17 14 3 14 9 14
split_gain=2871.69 932.958 677.755 786.823 788.409 1143.25 1305.21 1004.39 728.319 693.311 710.752 691.245 690.413 801.761 584.45 1102.81 584.316 560.274 670.013 1027.74 621.575 913.146 530.541 528.33 510.075 450.531 652.411 821.28 1389.05 1384.99
threshold=7.6428571428571432 2.8896499238964997 1.5000000000000002 1.5731321849709865 5.2500000000000009 1.0000000180025095e-35 10.553571428571432 16.500000000000004 19.750000000000004 21.678571428571434 26.500000000000004 6.4419324679203553 3.6736043311189657 22.642857142857149 2.5000000000000004 8.1805580412885401 20.928571428571434 11.500000000000002 11.500000000000002 8.8916052440063336 13.928571428571431 65.500000000000014 15.500000000000002 1.2071067811865477 1.0000000180025095e-35 4.9494897427831788 25.500000000000004 2.9142135623730954 11.581317077268816 4.0615528128088316
decision_type=2 2 2 2 2 2 2 2 2 2 2 2 2 2 2 2 2 2 2 2 2 2 2 2 2 2 2 2 2 2
left_child=1 -1 -2 4 5 -4 -7 8 17 14 12 16 13 -11 15 24 -12 -6 19 -19 21 -21 -17 -3 -5 26 27 -18 -29 -30
right_child=2 23 3 9 7 6 -8 -9 -10 10 11 -13 -14 -15 -16 22 25 18 -20 20 -22 -23 -24 -25 -26 -27 -28 28 29 -31
leaf_value=-0.0051615332899369142 -0.23381687047048694 0.014977004347317444 0.045409776863212202 -0.050231760823279153 0.017561737408514244 -0.16150432431863415 -1.0415918371894144 0.36266473278403288 -0.42099861904721836 -0.015152666966120401 0.17287438444424577 0.42233699025251925 0.11698053098598303 0.76234467807743289 0.018493914412862477 -0.03113722557371313 0.2131346881389618 0.17474609413277217 0.26930888383556528 -0.1987983030509459 0.3081230177120729 0.074444747901780503 -0.63257923288778828 0.00095815787691154333 0.039854090240228651 0.01876308527552667 0.064036418944597245 0.022113843262195589 -1.2343230210817779 -0.35360072119194164
leaf_count=383091 105 30452 234 1782 826 72 22 130 29 21 144 39 897 36 57477 22 29 651 251 219 55 277 44 229389 971 381 90 54 26 57
internal_value=0 -0.0202427 0.200408 0.204519 0.726368 -0.72919 -3.67482 0.922194 0.769863 0.181264 0.79742 0.114689 1.38425 4.75898 0.163135 -0.281423 -0.0904822 0.833231 1.20707 0.896762 -0.108328 -0.462009 -4.32099 0.0260109 -0.184579 -0.501736 -1.52771 -2.70317 -3.72653 -6.2949
internal_count=707873 642932 64941 64836 2766 328 94 2438 2308 62070 1774 820 954 57 60296 2819 781 2279 1453 1202 551 496 66 259841 2753 637 256 166 137 83
shrinkage=0.1


Tree=37
num_leaves=31
num_cat=0
split_feature=6 4 1 14 12 3 4 13 9 12 1 14 11 1 6 4 1 3 9 4 11 13 3 17 4 14 3 9 2 5
split_gain=2402.32 1074.18 622.713 548.206 651.331 1642.96 953.491 936.958 544.16 507.571 464.007 486.756 925.357 871.465 704.953 646.736 518.605 595.435 686.581 646.731 703.612 574.875 515.215 659.258 459.576 449.032 448.274 424.704 422.886 694.046
threshold=9.6964285714285747 3.785714285714286 2.5000000000000004 2.7370892179053912 4.1322658193879578 5.5000000000000009 7.5000000000000009 8.7500000000000018 8.8531804652733026 4.2473439196159033 2.5000000000000004 1.5731321849709865 8.5351882160392822 156.50000000000003 10.875000000000002 20.785714285714288 219.50000000000003 11.500000000000002 8.8916052440063336 12.214285714285717 11.96858552631579 22.750000000000004 4.5000000000000009 1.0000000180025095e-35 36.857142857142868 2.3427788601414843 14.500000000000002 1.7371679360951144 11.500000000000002 14.464285714285717
decision_type=2 2 2 2 2 2 2 2 2 2 2 2 2 2 2 2 2 2 2 2 2 2 2 2 2 2 2 2 2 2
left_child=1 25 -3 4 6 7 27 -6 -9 -5 -2 12 13 14 -12 16 17 18 -14 20 -20 -21 23 -18 28 -1 -15 -4 29 -13
right_child=10 2 3 9 5 -7 -8 8 -10 -11 11 24 15 26 -16 -17 22 -19 19 21 -22 -23 -24 -25 -26 -27 -28 -29 -30 -31
leaf_value=-0.0033740632749060099 -0.19432714629413872 -0.11333346056027255 -0.25889790250609318 -0.0069831071678991379 -0.040020641709374034 0.016486300989679025 0.038948087062800417 -0.1215985526556605 -0.29462353755163667 0.029913169967317389 -0.17754812473431231 0.027562094857824598 0.15026608170290667 -0.064511147075159078 -0.93436679661273958 0.59286728650331499 0.26755942097731999 0.2185168779271458 0.035168774624665576 0.11507415841685401 -0.3410858901234361 -0.44437845110893248 0.090234542179566168 0.98727359116077429 0.43590818635291523 -0.020862249244368563 0.43693973218046483 0.0072144766292656847 0.013774656459261528 0.091778725209051837
leaf_count=458302 96 445 60 45788 941 2951 10109 466 298 4059 32 12414 332 118 20 28 35 251 90 225 111 20 52 20 27 15168 21 133452 19995 1947
internal_value=0 -0.013452 0.0482829 0.0509369 0.0814359 -0.286665 0.0933693 -1.06817 -1.89087 -0.0397867 0.252283 0.25818 0.846066 -1.194 -4.68632 1.18082 1.06379 0.845917 0.413845 -0.396664 -1.72614 0.694046 3.15909 5.29274 0.235012 -0.0393431 0.112476 0.0709489 0.231771 0.362683
internal_count=707873 672039 198569 198124 148277 4656 143621 1705 764 49847 35834 35738 1355 191 52 1164 1136 1029 778 446 201 245 107 55 34383 473470 139 133512 34356 14361
shrinkage=0.1


Tree=38
num_leaves=31
num_cat=0
split_feature=4 1 5 9 14 0 8 2 0 1 3 12 14 14 5 3 3 4 0 14 9 12 9 2 14 4 6 17 3 13
split_gain=1970.56 789.494 812.194 511.195 559.784 712.543 573.986 490.241 721.925 2844.57 451.851 710.429 642.049 1373.42 807.807 814.136 610.12 579.933 559.549 513.594 544.431 492.058 1232.9 482.757 431.507 497.665 838.339 441.412 440.462 758.182
threshold=4.9285714285714297 1.5000000000000002 11.464285714285717 1.9126112391019563 1.2071067811865477 63.500000000000007 115.50000000000001 11.500000000000002 524.50000000000011 102.50000000000001 11.500000000000002 7.2835192039348815 4.6364957273896357 2.5476205269238847 23.035714285714288 7.5000000000000009 8.5000000000000018 14.071428571428573 45.500000000000007 1.5731321849709865 6.5637857541817333 1.174440039322431 9.039529846764184 16.500000000000004 3.3903632027465775 15.500000000000002 12.446428571428575 1.0000000180025095e-35 1.5000000000000002 7.7500000000000009
decision_type=2 2 2 2 2 2 2 2 2 2 2 2 2 2 2 2 2 2 2 2 2 2 2 2 2 2 2 2 2 2
left_child=-1 -2 3 -3 5 -5 -7 8 -4 -10 11 17 13 14 15 -13 23 -9 -18 20 -12 22 -19 -15 25 26 28 -26 29 -6
right_child=1 2 7 4 24 6 -8 10 9 -11 19 12 -14 16 -16 -17 18 21 -20 -21 -22 -23 -24 -25 27 -27 -28 -29 -30 -31
leaf_value=-0.0027802624750659878 -0.18192722499996172 -0.27752602219818134 0.048417091440868254 0.083063060432860047 -0.0058971813501252617 0.016718688787405983 -0.19218915806507036 -0.017768199137722887 1.3536909925937655 -0.18594281236330668 -0.3032568366825581 -0.024498476749270165 0.092629993564726135 -0.14208210836618373 0.36793105900287632 -0.60837807792883658 -0.29812034577341151 0.070906587131321433 0.18150375744680297 0.026748624952175889 0.24765589477216032 0.080172898962078687 -0.5783860680533619 -0.55060019582243902 -0.021363940981943802 -0.47845616340637209 0.48432208976230107 0.014699230385449569 0.0096834615527731666 -0.12182932203769872
leaf_count=554032 214 63 6265 2185 4871 2444 139 2685 20 30 20 293 148 39 48 26 71 102 37 11193 174 1301 41 112 10363 21 37 5047 105214 638
internal_value=0 0.100126 0.1028 0.0725987 0.0739687 0.410317 0.0547665 0.277852 0.514376 4.29911 0.18616 -0.0676511 -0.946838 -1.38969 -0.145373 -0.720874 -3.15287 0.0971566 -1.33805 0.295446 1.90861 0.608197 -1.15254 -4.45089 0.0612602 0.0830698 0.0839927 -0.0955273 0.0824023 -0.193233
internal_count=707873 153841 153627 131022 130959 4768 2583 22605 6315 50 16290 4903 774 626 367 319 259 4129 108 11387 194 1444 143 151 126191 110781 110760 15410 110723 5509
shrinkage=0.1


Tree=39
num_leaves=31
num_cat=0
split_feature=6 12 14 4 8 6 4 8 3 12 4 5 5 14 12 10 18 2 5 11 4 4 3 9 14 4 13 4 12 4
split_gain=1687 757.495 477.152 506.332 378.99 3221.7 370.432 366.399 450.797 521.466 419.782 359.17 358.054 378.438 385.508 734.342 349.627 506.604 415.957 658.215 418.53 812.567 365.381 362.609 432.213 765.769 539.456 540.463 451.911 429.704
threshold=8.9464285714285747 1.3885086460707559 1.2071067811865477 4.5000000000000009 124.50000000000001 3.3035714285714293 36.857142857142868 13.500000000000002 9.5000000000000018 3.8410926575837938 7.2142857142857153 5.4642857142857153 3.6785714285714293 2.9142135623730954 3.2446106688036496 2.5000000000000004 1.0000000180025095e-35 34.500000000000007 16.607142857142861 17.28561072852483 20.785714285714288 20.071428571428573 8.5000000000000018 6.1205914438262896 2.3427788601414843 24.071428571428573 23.500000000000004 15.500000000000002 6.1233834131293339 19.214285714285719
decision_type=2 2 2 2 2 2 2 2 2 2 2 2 2 2 2 2 2 2 2 2 2 2 2 2 2 2 2 2 2 2
